%YAML:1.0
---
opencv_ml_svm:
   format: 3
   svmType: C_SVC
   kernel:
      type: LINEAR
   C: 2.6699999999999999e+00
   term_criteria: { epsilon:1.1920928955078125e-07, iterations:1000 }
   var_count: 400
   class_count: 10
   class_labels: !!opencv-matrix
      rows: 10
      cols: 1
      dt: i
      data: [ 0, 1, 2, 3, 4, 5, 6, 7, 8, 9 ]
   sv_total: 45
   support_vectors:
      - [ 0., 0., 0., 0., 0., 0., 0., 0., 0., 0., 0., 0., 0., 0., 0., 0.,
          0., 0., 0., 0., 0., 0., 0., 0., 0., 0., 0., 0., 0., 0., 0., 0.,
          0., 0., 0., 0., 0., 0., 0., 0., 0., 0., 0., 0., 0.,
          -2.64962569e-06, -4.54221572e-06, -3.03617117e-06,
          -3.38768223e-05, -2.35718071e-05, -9.55179257e-06,
          -3.42409912e-04, -1.34820875e-04, 1.82447795e-04,
          4.39019168e-05, 0., 0., 0., 0., 0., 0., 0., 0., 0.,
          -4.35295669e-06, -4.50717343e-05, -8.09149278e-05,
          -7.94791267e-05, -9.67155283e-05, 2.05221848e-04,
          6.57384109e-04, 9.40498867e-05, -3.42822575e-04,
          -6.19062921e-05, 1.25044404e-04, 4.17978008e-05, 0., 0., 0.,
          0., 0., 0., 0., 0., -2.10077469e-05, -6.18494159e-05,
          -1.10162473e-04, -6.44433530e-05, 4.87995785e-05,
          2.79740314e-04, 3.65304440e-04, 1.43456578e-04, 3.08987306e-04,
          -2.55212275e-04, 2.96262060e-05, 8.02415088e-05,
          -2.05896104e-05, 0., 0., 0., 0., 0., 0., 0., 7.12583642e-06,
          1.00121606e-05, -1.25618290e-05, 1.19373377e-04,
          1.56518086e-04, 6.97010473e-05, 2.23405241e-05,
          -9.73376664e-05, 3.62461811e-04, -2.14644024e-04,
          -2.78996653e-04, -4.55760585e-07, 5.88608273e-05, 0., 0., 0.,
          0., 0., 0., 0., 2.59497938e-05, 3.75671189e-05, 1.09837587e-04,
          3.04849411e-04, 9.18563965e-05, -2.67577998e-04,
          2.30490317e-04, 1.61451433e-04, 1.33351452e-04, 4.26466613e-05,
          2.54540350e-06, 2.80596985e-04, 2.12225597e-04, 1.49994748e-05,
          0., 0., 0., 0., 0., 2.69877864e-06, 5.91731332e-05,
          1.46964623e-04, 2.98572733e-04, 2.40197231e-04,
          -1.17703297e-04, 1.61968608e-04, 1.33359383e-04,
          -1.78218383e-04, -1.32721427e-04, 2.59443750e-05,
          3.64926265e-04, 4.49652231e-04, 4.15311399e-04, 9.74579380e-05,
          -5.64050752e-05, 0., 0., 0., 0., 2.00781942e-05,
          1.45794707e-04, -4.59991497e-05, -1.90846495e-05,
          -3.06572649e-04, 1.18633594e-04, 1.94342138e-04,
          -8.40187495e-05, -4.82299103e-04, -8.38251653e-05,
          2.52081431e-04, 4.99327143e-04, 2.35473402e-04, 3.25844157e-04,
          2.74632854e-04, -4.91270002e-05, 0., 0., 0., 0.,
          7.34565474e-05, 1.83780736e-04, 3.26533736e-05, 1.90320512e-04,
          3.26131441e-04, 4.38720250e-04, -3.11717595e-04,
          -8.59426393e-04, -6.26445399e-04, -2.24049309e-05,
          1.34218484e-04, 4.88253601e-04, 2.17388442e-04, 2.39188375e-04,
          3.61972168e-04, -1.29077250e-06, 0., 0., 0., 0.,
          1.38902265e-04, 3.38215847e-04, 2.93366611e-04, 3.89393943e-04,
          8.72168981e-04, 3.08124378e-04, -4.99720103e-04,
          -1.16603042e-03, -3.59246013e-04, 3.82800383e-04,
          2.69305136e-04, 3.60502250e-04, 1.54779846e-04, 2.81724177e-04,
          3.17334110e-04, -1.80708157e-05, -3.22693131e-06, 0., 0., 0.,
          1.80492891e-04, 3.41738196e-04, 1.98125315e-04, 5.59678301e-04,
          8.71999422e-04, 1.63509205e-04, -8.61140667e-04,
          -1.04347675e-03, -3.51066483e-05, 4.96049644e-04,
          1.34388712e-04, 2.80133536e-04, 3.31835559e-04, 3.93375172e-04,
          1.92759297e-04, -3.22693131e-06, 0., 0., 0., 7.44072622e-07,
          1.55009649e-04, 2.42039241e-04, 1.89746337e-04, 3.50375078e-04,
          7.92298291e-04, 2.87840550e-04, -6.32309937e-04,
          -3.52022122e-04, 2.42720373e-04, 7.93892599e-04,
          3.80068726e-04, 3.15753277e-04, 4.74607572e-04, 2.74597929e-04,
          6.08856899e-05, 0., 0., 0., 0., 3.83941506e-06, 9.10803719e-05,
          3.54510441e-04, 4.86774254e-04, 1.65740668e-04, 1.39224954e-04,
          1.72952612e-04, -8.59001302e-04, -4.06389678e-04,
          4.96083347e-04, 5.46933734e-04, 4.36016089e-05,
          -1.45878730e-04, 1.04200037e-04, 8.67151903e-05,
          -2.98201321e-05, -7.59042791e-07, 0., 0., 0., 5.62518926e-06,
          5.87282848e-05, 1.80818999e-04, 2.75822124e-04,
          -1.75782217e-04, 5.54080361e-05, 3.53033218e-04,
          -3.43285355e-04, -4.65865684e-04, 3.53573560e-04,
          -1.47198210e-04, -3.86464468e-04, -2.10224767e-04,
          3.05551912e-05, -3.26972222e-05, -7.70428451e-05,
          -9.10851304e-06, 0., 0., 0., 6.30973591e-06, 4.98425034e-05,
          1.07878637e-04, -1.89735045e-04, -3.76176788e-04,
          2.99260486e-04, 4.40643722e-04, 2.08826183e-04, 9.84371509e-05,
          1.50764841e-04, -1.74413537e-04, 4.39905780e-05,
          1.16433468e-04, 1.01036632e-04, 4.70986515e-06,
          -1.17651634e-05, -7.59042791e-07, 0., 0., 0., 2.88700176e-06,
          5.25866162e-05, 2.19630107e-04, -7.59862669e-05,
          -1.52394219e-04, 1.59811796e-04, 3.01329885e-04,
          4.87269193e-04, 4.16610506e-04, 1.56000078e-05,
          -2.06924757e-04, 1.24818616e-04, 1.11646033e-04,
          4.86490808e-06, 0., 0., 0., 0., 0., 0., 0., 8.66681949e-05,
          1.91179846e-04, 1.60800570e-04, 1.40619581e-04, 1.77064707e-04,
          2.69085518e-04, 2.70913937e-04, 2.65247771e-04, 1.12560752e-04,
          -1.70591811e-04, 3.94222880e-05, -8.77561757e-09,
          -3.40666156e-06, 0., 0., 0., 0., 0., 0., 0., 0., 0., 0., 0.,
          0., 0., 0., 0., 0., 0., 0., 0., 0., 0., 0., 0., 0., 0., 0., 0.,
          0., 0., 0., 0., 0., 0., 0., 0., 0., 0., 0., 0., 0., 0., 0., 0.,
          0. ]
      - [ 0., 0., 0., 0., 0., 0., 0., 0., 0., 0., 0., 0., 0., 0., 0., 0.,
          0., 0., 0., 0., 0., 0., 0., 0., 0., 0., -9.51721522e-05,
          -1.24781276e-04, -4.26958577e-05, -1.60109470e-04,
          -1.74341418e-04, -1.42319532e-05, 0., 0., 0., 0., 0., 0., 0.,
          0., 0., 0., 0., 0., -4.85941200e-06, -9.08375150e-05,
          -4.57455521e-04, -4.47765866e-04, -2.45399016e-04,
          1.63855046e-04, -2.98247498e-04, -3.45981156e-04,
          7.51738960e-04, 1.26209448e-03, -4.43285069e-04,
          -2.46027630e-04, 3.22657870e-05, 2.18268560e-05, 0., 0., 0.,
          0., -5.91596927e-06, -8.61465014e-05, -1.74955960e-04,
          -3.00992775e-04, -5.96553436e-04, 5.22767295e-05,
          -2.41594083e-04, -6.74630806e-04, 9.15244455e-05,
          -1.09107886e-03, -1.27756409e-03, 5.93096949e-04,
          1.31712741e-05, -2.57894921e-04, 3.00579646e-04,
          1.91271451e-04, 0., 0., 0., -2.25292547e-06, -3.90768946e-05,
          -3.43220716e-04, -4.60102950e-04, -5.33188519e-04,
          -4.45845653e-04, 7.73108331e-04, 8.84465117e-05,
          -1.65191541e-05, 4.39293188e-04, -3.91761365e-04,
          -1.34228525e-04, -2.05032498e-04, 7.25251099e-04,
          -1.25721723e-04, 2.86366965e-04, 2.10022903e-04, 0., 0., 0.,
          -2.02763295e-05, -9.05909692e-05, -3.76917771e-04,
          -4.04411054e-04, -4.43334517e-04, -3.65619780e-05,
          1.53767614e-04, 2.52613419e-04, 4.39137482e-04, 8.61952372e-04,
          -5.87081944e-04, 4.28448606e-04, 9.12559626e-04,
          4.19089047e-04, -3.90471512e-04, -3.56857709e-05,
          1.62207740e-04, 0., 0., 0., -4.00520094e-06, -8.21899011e-05,
          -3.12035234e-04, -2.02368508e-04, -9.63738348e-05,
          3.13493336e-04, -4.41099633e-04, -2.13677558e-04,
          -5.54363476e-04, 3.09449242e-04, -1.13664160e-03,
          -1.10369630e-03, -6.52294184e-05, -6.40496146e-04,
          9.92378555e-05, -1.60928059e-04, 3.13201235e-05, 0., 0., 0.,
          0., -2.54142124e-05, -8.20649002e-05, 2.45690171e-04,
          5.49521996e-04, 6.81563164e-04, 9.47082997e-04, 1.35370798e-03,
          1.54418347e-03, 6.02404762e-04, 7.49026367e-04, 1.15869613e-03,
          2.77734420e-04, -3.11875956e-05, 2.01777802e-04,
          6.22010790e-04, 5.23455637e-05, 0., 0., 0., 0.,
          -1.50195035e-06, 1.96016277e-04, 1.34251651e-03,
          1.14773714e-03, 1.29648054e-03, 1.11178181e-03, 1.61527074e-03,
          8.55340215e-04, 8.78039456e-04, 1.20318180e-03, 1.34010450e-03,
          8.74579593e-04, 9.56003147e-04, 1.01235393e-03, 1.13935012e-03,
          4.69639665e-04, -7.37356531e-05, 0., 0., 0., 0.,
          3.43249587e-04, 1.15283276e-03, 5.52886690e-04, 1.11278589e-03,
          1.18228863e-03, 4.03021200e-04, -6.38717553e-04,
          -9.55156866e-04, 9.38668236e-05, 3.53927171e-04,
          1.30628905e-04, 1.09538320e-03, 1.14118401e-03, 9.05962486e-04,
          6.34766708e-04, -2.46854150e-04, 0., 0., 0., -7.83608357e-06,
          3.45863547e-04, 1.18901872e-03, -4.55726462e-04,
          -6.16903490e-05, 8.57940002e-04, -4.73643828e-04,
          -3.40515806e-04, -2.79849349e-03, -2.73097045e-04,
          6.26796333e-04, 9.41141916e-04, 5.79279498e-04, 1.15740183e-03,
          1.55679998e-03, 1.21853920e-03, -2.59805471e-04,
          -3.77896358e-05, 0., 0., -4.43659119e-05, 7.59312825e-05,
          6.68641063e-04, -3.88430373e-04, 1.98883441e-04,
          -1.07614323e-04, 1.95973887e-04, -1.84526632e-03,
          -2.44252244e-03, 9.85469320e-04, -7.68692553e-05,
          -9.18902922e-04, -3.61652405e-04, 3.85562802e-04,
          5.82052802e-04, -1.72783271e-04, -8.50131910e-04,
          -8.36903855e-05, 0., 0., -4.56912057e-05, -1.78577538e-04,
          -5.11167455e-04, 2.82190013e-04, 2.76944338e-04,
          -8.70710763e-04, 5.43240225e-04, -1.91472832e-03,
          -8.01271410e-04, -1.02685910e-04, -1.70298212e-04,
          -4.41907439e-04, -5.36759500e-04, 2.32110018e-04,
          -2.65735987e-04, -6.05362875e-04, -6.11108495e-04,
          -1.24530161e-05, 0., 0., -4.40068070e-05, -4.46695602e-04,
          -3.30676907e-04, 7.09207961e-04, -8.22395232e-05,
          -8.21251713e-04, 9.84973158e-04, -1.89489545e-03,
          -1.73724710e-03, -9.63082828e-04, -2.78134481e-04,
          -5.60759276e-04, 8.26806237e-04, -8.29914061e-05,
          -3.45120032e-04, -6.54403048e-05, -7.84364238e-05,
          -7.84809345e-07, 0., 0., -1.22074323e-06, -3.83260747e-04,
          -3.42638465e-04, 3.91206559e-04, -7.02578924e-04,
          2.56016006e-04, 3.05595575e-04, 4.76376707e-04,
          -8.12421786e-04, 3.76182521e-04, -2.13303530e-04,
          -1.20157469e-03, -1.06379285e-03, -1.45339721e-03,
          1.86516671e-04, 1.30341650e-04, 0., 0., 0., 0.,
          -9.09244227e-06, -1.39140990e-04, 4.53437562e-04,
          4.80473798e-04, -7.35006470e-04, -2.31550934e-04,
          -3.71838716e-04, -5.55004284e-04, 1.41615549e-03,
          2.49359931e-04, -2.64821784e-03, -7.27096747e-04,
          3.03230976e-04, 7.84421063e-05, -3.55430180e-04,
          -2.88498977e-05, -3.27935936e-07, 0., 0., 0., -1.16103103e-04,
          -5.89781499e-04, 1.93480679e-04, -2.43801129e-04,
          -6.67651533e-04, -1.38773888e-04, 9.58528894e-04,
          1.69051427e-03, 2.06552143e-03, 2.85353861e-04,
          -1.16555998e-03, -3.54472984e-04, 3.79966921e-04,
          -2.30687394e-04, -3.10141884e-04, -4.04492639e-05,
          -1.21336288e-05, -6.23078267e-06, 0., 0., -6.14099990e-05,
          -2.93840945e-04, -2.97370047e-04, -2.59571971e-04,
          -2.59368127e-04, -2.82781199e-04, 3.30275041e-04,
          8.06269294e-04, 6.65476255e-04, 2.10814382e-04,
          -1.43110077e-03, -1.95327494e-03, -1.00176490e-03,
          -7.12327892e-05, -8.99047955e-05, -1.75889090e-05,
          -2.95142331e-06, -1.31174374e-06, 0., 0., 0., 0., 0., 0., 0.,
          0., 0., 0., 0., 0., -1.78896749e-04, -1.01613358e-03,
          -6.22560678e-04, 0., 0., 0., 0., 0., 0., 0., 0., 0., 0., 0.,
          0., 0., 0., 0., 0., 0., 0., 0., 0., 0., 0., 0., 0., 0. ]
      - [ 0., 0., 0., 0., 0., 0., 0., 0., 0., 0., 0., 0., 0., 0., 0., 0.,
          0., 0., 0., 0., 0., 0., 0., 0., 0., 0., 0., 0., 0., 0., 0., 0.,
          0., 0., 0., 0., 0., 0., 0., 0., 0., 0., 0., 0., 0., 0.,
          2.94992196e-06, -2.17532706e-05, -3.99338518e-04,
          -8.15815700e-04, -5.08212543e-04, -5.66850300e-04,
          -6.48269663e-04, -2.78958469e-04, -1.11129761e-04,
          -6.19685034e-06, 1.26326368e-05, 8.54560767e-06, 0., 0., 0.,
          0., 0., 0., -8.10135389e-05, -2.48496595e-04, -3.28293536e-04,
          -5.41877234e-04, -1.22668175e-03, -1.24192750e-03,
          5.39389323e-04, 1.48956635e-04, -4.35925438e-04,
          -1.12124340e-04, 6.72867813e-04, 3.88794928e-04,
          6.14188466e-05, 7.28237792e-05, 0., 0., 0., 0., 0.,
          -7.10500753e-05, -4.76158602e-04, -6.57524040e-04,
          -6.52550312e-04, -8.79126252e-04, -7.75987923e-04,
          -3.39591497e-04, 1.97206209e-05, -4.63412871e-04,
          1.43402605e-04, -7.29374471e-04, 4.11887042e-04,
          4.28878702e-04, -3.53446056e-04, 3.28370115e-05, 0., 0., 0.,
          0., -4.24398741e-06, -1.33472831e-05, -3.65814514e-04,
          -6.75990013e-04, -6.06605026e-04, -3.04886926e-04,
          1.67438542e-04, -1.95199202e-04, -4.78461589e-05,
          9.71517125e-07, 3.53548094e-05, -9.32067487e-05,
          2.32615072e-04, 3.35521618e-04, -5.03499468e-04,
          -3.64094849e-05, 0., 0., 0., 0., -5.63144476e-06,
          -8.97766586e-06, -2.38238736e-05, -4.46112390e-04,
          -2.15959270e-04, 1.09720233e-04, -3.13629484e-04,
          -5.62086585e-04, 7.11191213e-04, 1.62762604e-04,
          -3.44625041e-05, 5.43929811e-04, -5.97072467e-05,
          4.47950442e-04, 1.97271758e-04, 2.16517710e-05, 0., 0., 0., 0.,
          -1.63230283e-07, 2.88421415e-05, 3.52631439e-04,
          3.37997219e-04, 2.28900826e-04, 2.61659239e-04, 1.04683277e-04,
          3.07003706e-04, -1.49577914e-04, -3.33606178e-04,
          8.78329884e-05, -5.91324751e-05, -1.27234278e-04,
          8.92853132e-04, 8.16876418e-04, 3.78833283e-05, 0., 0., 0., 0.,
          0., 1.34671558e-04, 6.79904420e-04, 6.13817887e-04,
          5.03571006e-04, -3.57005047e-04, -1.10277681e-04,
          -5.63902955e-04, -3.85617692e-04, -6.44681510e-04,
          -1.16592681e-03, 2.71107892e-05, 4.98954789e-04,
          7.56839465e-04, 7.33441964e-04, 1.57683346e-04, 0., 0., 0., 0.,
          0., 2.06634562e-04, 5.93739154e-04, 3.18257924e-04,
          3.04369401e-04, -6.53421041e-04, -5.00592396e-05,
          -5.11308492e-04, -2.01926311e-03, -1.12469087e-03,
          -1.00789801e-03, -5.71020180e-04, 7.88623525e-04,
          4.27225168e-04, 3.07675829e-04, 2.98623927e-04, 0., 0., 0., 0.,
          2.46622767e-06, 4.27487335e-04, 6.45322143e-04, 7.29158346e-04,
          1.80114876e-04, 1.09830196e-03, 9.50657122e-04,
          -1.99733651e-04, -2.80724233e-03, -5.95343474e-04,
          2.14979926e-04, -1.47060971e-04, 3.84754909e-04,
          2.41041460e-04, 4.46365675e-06, 2.28302524e-04, 0., 0., 0.,
          -5.47248164e-05, -1.05788829e-04, 4.60458512e-04,
          1.21101714e-03, 1.76409981e-03, 1.46496773e-03, 1.56448153e-03,
          7.87324563e-04, -1.62819109e-03, -2.25851499e-03,
          2.35646457e-05, -1.79289695e-04, -5.94956160e-04,
          -2.94913798e-06, 6.07265043e-04, 8.71456577e-05,
          -1.77999609e-04, 0., 0., 0., -1.14249553e-04, -3.81684134e-04,
          -1.28019426e-04, 5.11320191e-04, 5.20984468e-04,
          2.37350287e-05, 1.31338637e-03, 1.32009224e-03,
          -4.43814992e-04, 3.36838384e-05, 1.49784086e-04,
          -2.83502130e-04, -1.32170127e-04, -3.08731542e-04,
          7.21356831e-04, 1.01280748e-04, -2.74680060e-04, 0., 0., 0.,
          -1.76751200e-05, -5.93838806e-04, -5.00422379e-04,
          -2.34895153e-04, 3.38156387e-04, 6.07269525e-04,
          5.80311636e-04, 1.72057177e-03, -7.47156155e-05,
          -2.01696428e-04, -5.44948853e-04, -2.51456921e-04,
          -5.11819904e-04, -6.79967343e-04, 8.68617863e-05,
          -2.29746322e-04, -3.63153289e-04, 0., 0., 0., 0.,
          -4.77411522e-04, -5.94735378e-04, -9.88284941e-04,
          2.94209516e-04, 1.03658596e-04, 5.19984518e-04, 1.15751836e-03,
          1.00794576e-04, -2.19907059e-04, 1.14899785e-05,
          -2.24856907e-04, -3.28956958e-04, -3.77462013e-04,
          -5.46501367e-04, -7.63017626e-04, -3.57921701e-04, 0., 0., 0.,
          0., -3.42562162e-05, -1.13282353e-04, -1.28274260e-04,
          2.68784526e-04, -3.77360935e-04, 8.94836325e-04,
          6.18629565e-04, -2.59299723e-05, 9.90753435e-08,
          4.68066341e-04, -5.24302246e-04, -4.90011356e-04,
          -1.59439533e-05, -5.53772727e-04, -5.31851547e-04,
          -2.53167309e-05, 0., 0., 0., 0., -5.03126321e-05,
          -2.64233211e-04, 2.53528095e-04, -3.26091744e-04,
          2.39874338e-04, 5.43510134e-04, 1.00213906e-03, 1.39381364e-03,
          8.29343393e-04, 2.45338539e-04, 4.77407739e-05, 1.33214504e-04,
          -1.98872222e-04, -3.84267216e-04, -8.02131835e-05, 0., 0., 0.,
          0., 0., -8.39911736e-05, -2.90566037e-04, -1.74725192e-05,
          -6.06884190e-04, -5.60473418e-04, -6.19811181e-04,
          -3.77336808e-04, 6.35862234e-04, 6.47476525e-04,
          4.85254219e-04, 1.09797016e-04, 9.56085933e-06,
          -7.51241023e-05, -5.53194377e-06, 0., 0., 0., 0., 0., 0.,
          -2.03779637e-05, -1.49438405e-04, -1.60469601e-04,
          -3.29132628e-04, -4.34128102e-04, -5.01365284e-04,
          -4.28722007e-04, -1.21388694e-04, 1.25300459e-04,
          4.82154064e-05, 0., 0., 0., 0., 0., 0., 0., 0., 0., 0., 0., 0.,
          0., 0., 0., 0., 0., 0., 0., 0., 0., 0., 0., 0., 0., 0., 0., 0. ]
      - [ 0., 0., 0., 0., 0., 0., 0., 0., 0., 0., 0., 0., 0., 0., 0., 0.,
          0., 0., 0., 0., 0., 0., 0., 0., 0., 0., 0., 0., 0., 0., 0., 0.,
          0., 0., 0., 0., 0., 0., 0., 0., 0., 0., 0., 0., 0., 0.,
          -4.33699006e-06, -3.40113111e-05, -2.29791167e-05,
          2.68256081e-05, 3.92613983e-05, 8.50347133e-05, 4.14092967e-04,
          7.57378220e-05, 3.26590234e-05, -1.91896052e-05,
          -1.25877195e-05, 0., 0., 0., 0., 0., -3.73943152e-07,
          -4.48731771e-06, -3.04496552e-06, 4.74921171e-06,
          -8.93060351e-05, -3.58179212e-04, -2.07308214e-04,
          3.50397895e-04, 8.28300777e-04, 4.56069101e-04, 1.30642075e-04,
          2.24939868e-04, 1.15590534e-04, -1.48622770e-04,
          -1.86950710e-04, -5.73098623e-05, 0., 0., 0., 0.,
          -1.49577261e-06, -1.25003853e-05, -1.20196009e-05,
          -3.76204262e-05, -1.99822942e-04, -2.73389858e-04,
          1.35744587e-04, 5.13626204e-04, 7.09344633e-04, 4.96081018e-04,
          2.57957785e-04, 1.20632634e-04, -9.62732065e-06,
          -7.68342579e-05, -3.25652829e-04, -1.77667869e-04,
          -2.62076792e-05, -9.42414317e-07, 0., 0., -2.89451668e-06,
          -1.80649713e-05, -3.67463981e-05, -2.06699566e-04,
          -2.00438924e-04, 1.79891013e-05, 1.48717416e-04,
          9.84717844e-05, 1.23092221e-04, 1.40071134e-05, 3.04344285e-04,
          -3.12219112e-04, -2.84675392e-04, -1.59855059e-04,
          5.51077801e-06, -2.05819713e-04, -6.98953736e-05,
          -1.10733681e-05, 0., 0., -1.05934678e-05, -8.36328909e-05,
          -1.54388152e-04, -2.17622161e-04, -4.29042193e-05,
          7.79341644e-05, 2.07123448e-05, 1.21542078e-04, 8.61891953e-04,
          2.43065966e-04, 3.83431703e-04, 3.52678966e-04,
          -3.47013673e-04, -7.76955585e-06, -1.66721380e-04,
          -2.35191997e-04, -4.18163218e-05, -1.41362148e-06, 0., 0.,
          -1.18270445e-05, -5.40440742e-05, -6.17668047e-05,
          1.92807463e-04, 7.18553929e-05, -1.20605589e-04,
          2.81550252e-04, 5.59269160e-04, 1.20853633e-03, 5.45915391e-04,
          9.01844352e-04, 9.13144089e-04, 2.50095385e-04, 5.46865398e-04,
          2.81410816e-04, 1.66170168e-04, 0., 0., 0., 0.,
          -2.22671224e-05, -9.30568713e-05, 2.31365237e-04,
          8.20504283e-05, -4.52542619e-04, 4.08524756e-05,
          4.36666014e-04, 4.37847455e-04, 2.29950267e-04,
          -4.49797953e-04, -1.38442381e-04, 1.34403585e-04,
          3.26482696e-04, 5.31637226e-04, 3.16190330e-04,
          -1.07898413e-04, -2.00940376e-05, 0., 0., 0., -2.66781535e-05,
          2.38231005e-05, 9.13594995e-05, -3.66484310e-04,
          -2.64064613e-04, -1.43891509e-06, -1.64599624e-04,
          -4.69536026e-04, -7.17866584e-04, -8.02041381e-04,
          -8.21590074e-04, -9.37301083e-04, -1.38166051e-05,
          4.62942437e-04, 4.15256247e-04, -2.68749543e-04,
          -6.36311161e-05, 0., 0., 0., -2.06755685e-05, 1.68732004e-05,
          5.72882636e-05, 2.73409969e-04, -3.93378868e-04,
          4.51075757e-05, -3.23849439e-04, -4.41432727e-04,
          -1.24409690e-03, -1.00636878e-03, -7.89002224e-04,
          -4.70075960e-04, 1.02943210e-04, 4.28640080e-04,
          3.94446513e-04, 1.03280690e-04, 0., 0., 0., 0., 0.,
          -6.42439627e-05, 1.85150231e-04, 5.41915302e-04,
          -3.62141727e-04, -6.22613152e-05, 6.35216711e-05,
          -5.20954782e-04, -1.20678579e-03, -5.67957177e-04,
          -3.29638395e-04, -8.30408680e-05, 2.90152559e-04,
          3.45284963e-04, 1.89502884e-04, 3.27965332e-04, 0., 0., 0., 0.,
          -1.97041300e-05, -8.66266928e-05, -1.47008730e-04,
          -4.43737044e-05, -2.44855968e-04, 1.60328011e-04,
          -2.30946942e-04, -9.95942508e-04, -9.67407716e-04,
          -7.31263368e-04, -5.22963004e-04, -5.45997580e-04,
          -6.52495772e-04, -8.44195313e-07, 1.79550305e-04,
          2.05813194e-04, 0., 0., 0., 0., 4.37705130e-05, 1.73546898e-04,
          -1.93848944e-04, 3.29383096e-04, -2.22969407e-04,
          -7.93915606e-05, 4.86060708e-05, -4.08494234e-04,
          -5.13411360e-04, -4.47899278e-04, 2.02623982e-04,
          -4.77426773e-04, -1.82950243e-04, 4.40317293e-04,
          1.72714572e-04, 3.57511417e-05, 0., 0., 0., 0., 6.58649515e-05,
          4.47033322e-04, 4.03720565e-04, 6.78526529e-04, 6.49125199e-04,
          1.15110748e-03, 1.07430096e-03, 5.85756148e-04,
          -3.70560068e-04, -2.37346452e-04, 7.65150835e-05,
          -4.79048525e-04, -2.73682119e-04, 3.25321802e-04,
          1.25092865e-05, -1.00033894e-05, 0., 0., 0., 0.,
          6.92863759e-05, 2.66469520e-04, 4.84985765e-04, 7.91542348e-04,
          6.79413497e-04, 8.80759617e-04, 1.10649911e-03, 7.63421936e-04,
          7.11315894e-04, 4.70433530e-04, -3.53754585e-04,
          -4.48029750e-04, -3.62163468e-04, 1.13453585e-04,
          -6.96755524e-05, -1.38643809e-05, 0., 0., 0., 0.,
          2.29466150e-05, 1.28267944e-04, 2.33948143e-04, 1.76193880e-05,
          2.69378390e-04, 4.65925812e-04, 5.73975267e-04, 6.04054600e-04,
          4.96882305e-04, 7.73153879e-05, -2.72841309e-04,
          -4.00274439e-05, -4.33996582e-04, -1.92632462e-04,
          -5.10245773e-05, -1.44010382e-05, 0., 0., 0., 0., 0.,
          5.97969256e-06, -1.66852420e-04, -2.51866208e-04,
          -2.09352205e-04, -2.46769079e-04, -4.63128708e-05,
          3.10775249e-07, 2.63854919e-04, -7.35010544e-05,
          -4.98825248e-05, 7.73430438e-05, -7.58976312e-05,
          -5.03608426e-05, -9.73628721e-06, -2.95039013e-06, 0., 0., 0.,
          0., 0., 0., -8.30136102e-08, -7.52990081e-06, -3.57264107e-05,
          1.05900053e-05, 4.05316241e-05, 3.34833167e-05,
          -4.41452648e-05, -6.24896784e-05, -6.73517661e-06, 0., 0., 0.,
          0., 0., 0., 0., 0., 0., 0., 0., 0., -4.56087719e-06,
          -1.07314763e-05, 0., 0., 0., 0., 0., 0., 0., 0., 0., 0., 0.,
          0., 0. ]
      - [ 0., 0., 0., 0., 0., 0., 0., 0., 0., 0., 0., 0., 0., 0., 0., 0.,
          0., 0., 0., 0., 0., 0., 0., 0., 0., 0., 0., 0., 0., 0., 0., 0.,
          0., 0., 0., 0., 0., 0., 0., 0., 0., 0., 0., 0., 0.,
          -4.11648361e-05, -4.11648361e-05, 4.28455778e-08,
          -1.56858096e-05, -9.53328417e-05, -3.63946659e-04,
          -6.25651330e-04, -1.27335879e-04, 1.21429490e-04,
          -2.12845684e-04, -1.16659568e-04, 5.59294895e-05,
          1.33204676e-05, -3.82653889e-05, 0., 0., 0., 0., 0., 0.,
          -3.47614172e-04, -4.75682551e-04, -2.75596540e-04,
          -2.59006949e-04, 7.02315010e-05, 2.23782030e-03,
          1.29772152e-03, -1.59569085e-04, -4.78512782e-04,
          -1.11772760e-03, -6.64895517e-04, 4.92943218e-04,
          1.17429612e-04, -2.68563454e-04, 0., 0., 0., 0.,
          -2.62731191e-05, -1.69581035e-04, -5.51870267e-04,
          -1.05166563e-03, -6.00017665e-04, -4.27766092e-04,
          -5.43224334e-04, 6.03853085e-04, 1.21446105e-03,
          6.81556354e-04, 5.00034832e-04, 3.35155666e-04,
          -3.88197543e-04, -5.83020847e-05, -7.49839004e-04,
          -3.54519521e-04, 0., 0., 0., 0., -2.22127273e-04,
          -4.89404891e-04, -4.15528251e-04, -9.67002183e-04,
          2.72680423e-04, -2.50185461e-04, -6.46923436e-04,
          -4.60716110e-04, 6.22822787e-04, 1.63719652e-03,
          8.62533489e-05, -7.81556708e-04, -6.15931815e-04,
          -1.40111428e-04, -1.02216052e-03, -6.41711638e-04,
          -9.27139336e-05, 0., 0., 0., -9.79270771e-05, -2.67727853e-04,
          -1.38734744e-04, -6.73208036e-04, 1.96440422e-04,
          -5.61141758e-04, -1.21291133e-03, 4.32856439e-04,
          9.74802009e-04, 9.19118640e-04, 5.94371406e-04,
          -2.08043653e-04, -6.61263475e-05, 2.62230114e-05,
          -1.55454222e-03, -1.19280908e-03, -3.07708717e-04, 0., 0., 0.,
          3.24062312e-05, 9.30538590e-05, -4.38304822e-04,
          4.20232129e-04, -3.66996625e-04, -8.13307473e-04,
          -2.70821125e-04, -6.43759384e-04, 2.72338075e-04,
          1.43106488e-04, -8.79610889e-05, 1.60029263e-03,
          1.61511102e-03, 1.30505208e-03, 8.18706903e-05,
          -2.57382373e-04, -2.71991648e-05, 0., 0., 0., 4.92212203e-05,
          4.67198581e-04, -5.07638149e-04, 6.77118951e-04,
          2.11955572e-04, -1.06565240e-04, -5.61610104e-05,
          -1.65408605e-03, -1.41710823e-03, 3.57580953e-04,
          8.18570610e-04, 1.12234487e-03, 1.45839876e-03, 1.26519566e-03,
          5.49077638e-04, -5.96943100e-05, 0., 0., 0., 0.,
          1.87098980e-04, 6.76807656e-04, -6.47765934e-04,
          -3.07166774e-05, -3.52760573e-04, 3.39600629e-05,
          -3.86570726e-04, -1.82447676e-03, -1.65677944e-03,
          -3.13613360e-04, 7.02373858e-04, 3.59298690e-04,
          4.87855956e-04, 1.30359537e-03, 6.88323518e-04, 5.29008612e-05,
          0., 0., 0., 0., 5.26476128e-04, 1.23435934e-03, 1.12001109e-03,
          -2.04124168e-04, 7.62830954e-04, 5.75442275e-04,
          -8.07096425e-04, -2.69032456e-03, -5.28046570e-04,
          4.12737063e-05, -3.68897490e-05, 5.51184290e-04,
          -1.97249727e-04, 9.49047273e-04, 6.71677000e-04,
          9.27981600e-05, 0., 0., 0., 3.22719425e-05, 6.14601478e-04,
          1.51342584e-03, 1.98723329e-03, 3.45298875e-04, 3.47487046e-04,
          6.83532795e-04, -1.75952015e-03, -2.84988270e-03,
          6.25962741e-04, -7.68157042e-05, -8.90903058e-04,
          1.42689081e-04, -9.23824700e-05, 6.21006358e-04,
          4.40964272e-04, 5.40650144e-05, 0., 0., 0., 4.56772068e-05,
          4.59377246e-04, 6.13223703e-04, 8.01414018e-04, 1.01293193e-03,
          1.62242621e-03, 7.85680255e-04, -1.53182645e-03,
          -5.47936594e-04, 7.06280291e-04, 1.19211007e-04,
          4.50105726e-04, 6.79956749e-04, 3.26763839e-04, 3.35383345e-04,
          -2.06994358e-04, 8.06940477e-07, 0., 0., -6.96631588e-08,
          -1.36067349e-04, -4.19517834e-04, -4.07257066e-05,
          5.98317245e-04, 1.07818493e-03, 1.84561114e-03, 1.20482373e-03,
          -2.25319504e-03, -9.09922353e-04, 2.32799750e-04,
          2.07503530e-04, 3.05027585e-04, -1.17616983e-05,
          2.61575857e-04, 1.09948232e-04, -4.64514073e-04, 0., 0., 0.,
          -1.42809483e-07, -3.88060202e-04, -6.30341587e-04,
          -5.41892892e-04, -4.29450563e-04, -9.79087781e-04,
          2.66055504e-05, 1.00649672e-03, 2.98927353e-05,
          -2.45516312e-05, 4.50433174e-04, -3.98647215e-04,
          -2.65261537e-04, -7.53576925e-04, 5.43723349e-04,
          -2.51557998e-04, -5.10483049e-04, 0., 0., 0., -4.64421079e-09,
          -3.66037682e-04, -4.67701728e-04, 1.96093271e-04,
          2.28312987e-04, 2.97421037e-04, 1.22702890e-03, 2.18874393e-05,
          1.20233875e-04, 5.16314118e-04, -3.10553529e-04,
          -1.03679183e-03, -1.04535895e-03, -3.29423550e-04,
          2.25097363e-04, -4.96333523e-04, -2.29292680e-04, 0., 0., 0.,
          0., 3.40229381e-05, 2.49269448e-04, 1.17530068e-03,
          -2.42137321e-04, -5.87247720e-04, 1.01375021e-03,
          1.18857983e-03, 1.09130226e-03, -2.90569093e-04,
          -1.45505485e-03, -1.13852252e-03, -3.99142271e-04,
          3.54465679e-04, -2.26226635e-04, -2.10184953e-04,
          -2.38846542e-06, 0., 0., 0., 0., 0., 3.44282831e-04,
          7.92054401e-04, 1.85264216e-04, -4.41043550e-04,
          -4.41732089e-04, 2.17058783e-04, 8.41729518e-04,
          5.05441742e-04, 2.46618583e-04, 2.57836164e-05, 1.28327199e-04,
          -4.24335667e-05, -3.58269790e-05, 0., 0., 0., 0., 0., 0., 0.,
          0., 0., -5.43772330e-05, -2.52822530e-04, -1.35213326e-04,
          2.83746398e-04, 2.45426403e-04, -8.58461426e-05,
          -8.93245597e-05, -2.27294677e-05, 0., 0., 0., 0., 0., 0., 0.,
          0., 0., 0., 0., 0., 0., 0., 0., 0., 0., 0., 0., 0., 0., 0., 0.,
          0., 0., 0., 0. ]
      - [ 0., 0., 0., 0., 0., 0., 0., 0., 0., 0., 0., 0., 0., 0., 0., 0.,
          0., 0., 0., 0., 0., 0., 0., 0., 0., 0., 0., 0., 0., 0., 0.,
          -6.76953350e-05, -3.24739231e-04, -2.57255248e-04,
          -6.08306036e-05, 0., 0., 0., 0., 0., 0., 0., 0., 0.,
          -7.71040504e-07, -5.52617280e-07, 5.19965306e-06,
          -4.24625905e-04, -1.02980598e-03, -8.02894647e-04,
          8.37458065e-05, -9.80680808e-04, 4.15085058e-04,
          -6.97504380e-04, -6.13548444e-04, -2.15035150e-04,
          -1.11555142e-04, -7.96005565e-07, 0., 0., 0., 0., 0., 0.,
          -9.58293185e-06, 6.43471576e-05, 2.28636520e-04,
          -5.89140283e-04, 8.79662257e-05, 4.21150704e-04,
          1.77150534e-03, 1.00207049e-03, 8.91884323e-04,
          -2.79529719e-04, -6.91920985e-04, -3.68388428e-04,
          -6.11319381e-04, -9.05108973e-05, -5.23125891e-05, 0., 0., 0.,
          0., 0., -1.61918506e-05, -2.72434481e-05, 1.98284295e-04,
          -1.05101957e-04, 7.29209205e-05, 5.49710763e-04,
          1.31541700e-03, 7.66364508e-04, 1.05986743e-04, 2.00531053e-04,
          8.33108497e-04, 8.88854673e-04, -3.49749927e-04,
          -4.01309400e-04, -3.62813124e-04, -2.29500394e-04, 0., 0., 0.,
          -4.18564832e-06, -2.15038017e-05, 5.15910178e-05,
          -1.14425675e-04, -8.15717038e-04, 8.86484268e-05,
          3.83400096e-04, 3.34172917e-04, 3.61886021e-04, 1.56619190e-03,
          2.47253315e-03, 1.75752817e-03, 3.77613935e-04,
          -1.30356595e-04, -1.43327794e-04, -2.61562964e-04,
          -1.85625322e-04, 0., 0., 0., -7.82055395e-06, -3.06933216e-05,
          1.92312800e-04, -2.59962399e-04, 2.56877101e-05,
          9.40061655e-05, -5.84327441e-04, 6.11172814e-04,
          1.64405472e-04, 2.40032608e-03, 2.36303429e-03, 7.68743266e-05,
          7.42981094e-04, -1.91046100e-04, 3.73267365e-04, 0., 0., 0.,
          0., 0., 9.56960212e-05, -6.24154927e-05, 7.22713710e-04,
          -4.83073600e-05, 3.36409925e-04, 2.24946139e-04,
          2.02800773e-04, 4.83019627e-04, 1.12479401e-03, 2.80205999e-03,
          3.38853919e-04, -2.70879391e-04, 1.98466983e-03,
          8.67431110e-04, 7.42887089e-04, -1.71578870e-06, 0., 0., 0.,
          0., -1.10406995e-06, 1.73218985e-04, 1.13167462e-03,
          -9.54008487e-04, 9.78809767e-05, 5.28602046e-04,
          -5.87502545e-05, -7.32468325e-04, -2.68028845e-04,
          1.13082730e-04, -2.09653459e-04, 1.18456979e-03,
          1.34638604e-03, 6.16510340e-04, 5.43766597e-04,
          -5.36048992e-06, 0., 0., 0., 0., -1.40064280e-04,
          7.97134358e-04, 6.42471889e-04, -1.36315497e-03,
          3.09776660e-04, -2.63477792e-04, 4.28869316e-06,
          -8.62294983e-04, -3.69397785e-05, -1.39523880e-03,
          -9.73499555e-04, 8.57726904e-04, 6.90459565e-04,
          1.16844989e-04, 4.38732910e-04, -3.46525776e-05, 0., 0., 0.,
          0., -1.80672232e-05, 5.52427431e-04, 7.83940413e-05,
          -7.70942599e-04, 6.11422583e-04, -6.79618854e-04,
          -2.89708289e-04, -1.81403197e-03, -4.82560979e-04,
          -9.42754967e-04, -3.53909127e-04, 4.64007753e-04,
          4.63090728e-05, 3.85970518e-04, 3.96087911e-04,
          -2.36513115e-05, 0., 0., 0., -3.14097779e-05, -4.91705669e-06,
          4.62795433e-04, 6.34334516e-04, -7.00999401e-04,
          2.91587086e-04, -7.47516984e-04, -1.43998547e-03,
          -2.30434933e-03, -9.74234063e-05, -5.13406005e-04,
          7.91105966e-04, 1.99691785e-04, -6.75540796e-05,
          -4.49993997e-04, 4.63044824e-04, -6.67787299e-06, 0., 0., 0.,
          -2.09398513e-06, 7.10414406e-06, 4.26015031e-04,
          6.11523050e-04, -1.22188299e-03, 1.04585299e-04,
          3.86092841e-04, -7.80912931e-04, -1.20345328e-03,
          -2.98061233e-04, 2.24201300e-04, 2.69339915e-04,
          -1.12137117e-03, 4.19440737e-04, -3.07141017e-04,
          2.74594262e-04, -7.10412067e-08, 0., 0., 0., 0.,
          -2.48871627e-04, -1.20735840e-05, 6.08699862e-04,
          -1.16766512e-03, -5.07334422e-04, 5.77045197e-04,
          -2.39117857e-04, -2.92255863e-04, -7.51742220e-04,
          -4.90746694e-04, 2.23197087e-04, -1.20515346e-04,
          2.70656135e-04, -5.39651373e-04, 4.21878976e-05, 0., 0., 0.,
          0., 1.07004571e-05, 1.11478279e-04, 5.86586189e-04,
          5.11850230e-04, -7.20320037e-04, 4.31671535e-04,
          5.49234566e-04, -1.89940329e-06, -1.03139936e-03,
          -5.92439552e-04, -8.35913699e-04, -7.12379173e-04,
          -5.47476229e-04, -3.06376576e-04, 1.36504052e-04,
          6.81934252e-05, 0., 0., 0., 0., 1.31697934e-05, 1.81341849e-04,
          7.05436454e-04, 3.37090576e-04, -6.55842887e-04,
          1.11929716e-04, 3.49443435e-04, -6.04991277e-04,
          -5.65817281e-05, -2.58830492e-04, -2.03605089e-03,
          -1.79563172e-03, -4.14112554e-04, 8.51280405e-04,
          4.09160566e-04, 0., 0., 0., 0., 0., 0., 8.14899468e-05,
          2.32607214e-04, 2.73767713e-04, -1.88028687e-04,
          5.68108691e-04, 1.20176992e-03, 1.55283185e-03, 1.44945085e-03,
          5.57376072e-04, 3.10184812e-04, -1.25590421e-04,
          2.22641669e-04, 3.36096185e-04, 0., 0., 0., 0., 0., 0., 0.,
          4.11556039e-06, 1.56391288e-05, 1.74468987e-05, 2.29768521e-05,
          5.50089135e-06, 1.99941249e-04, 3.08702351e-04, 2.08824611e-04,
          1.76039292e-04, -1.27952017e-05, -6.96335483e-05,
          -3.83864353e-05, 0., 0., 0., 0., 0., 0., 0., 0., 0., 0., 0.,
          0., 0., 0., 0., 0., 0., 0., 0., 0., 0., 0., 0., 0., 0., 0., 0.,
          0., 0., 0., 0., 0., 0., 0., 0., 0., 0., 0., 0., 0., 0., 0., 0.,
          0., 0. ]
      - [ 0., 0., 0., 0., 0., 0., 0., 0., 0., 0., 0., 0., 0., 0., 0., 0.,
          0., 0., 0., 0., 0., 0., 0., 0., 0., 0., 0., 0., 0., 0., 0., 0.,
          0., 0., 0., 0., 0., 0., 0., 0., 0., 0., 0., 0., 0., 0.,
          8.27562531e-07, 8.67473955e-06, 1.57480772e-05, 3.89820379e-05,
          1.42465986e-04, 1.96694848e-04, 2.31043552e-04, 1.36730559e-05,
          2.10610415e-05, 1.28094098e-05, 2.17120269e-05, 1.46875473e-05,
          0., 0., 0., 0., 0., 0., -3.20727025e-07, -7.29029716e-06,
          -1.30038883e-04, -6.33383243e-05, -7.42854609e-05,
          3.32783966e-04, 1.09565177e-03, 1.03475538e-03, 6.89116132e-04,
          1.89886414e-04, 2.32556151e-04, 1.90045714e-04, 1.45663478e-04,
          1.27079213e-04, 0., 0., 0., 0., 0., -3.36164994e-05,
          -1.05280655e-04, -3.53808835e-04, -4.54369932e-04,
          -1.39663898e-04, 2.45734846e-04, 5.49192890e-04,
          5.77324128e-04, 4.36505536e-04, 9.62312683e-04, 4.87317884e-04,
          1.59938325e-04, 4.06054096e-05, 1.69918552e-04, 1.31549343e-04,
          0., 0., 0., 0., -6.75739693e-06, -2.46161624e-04,
          -6.13775919e-04, -6.32666110e-04, -4.77075897e-04,
          8.50663710e-05, 2.85929797e-04, -1.75152178e-04,
          -9.85577863e-05, 9.63741695e-05, 3.24085209e-04,
          1.25527746e-04, 2.20294038e-04, 7.65243167e-05, 2.27382174e-04,
          1.16584895e-04, 0., 0., -6.02747969e-06, -8.43847192e-06,
          -3.60394515e-05, -3.12401738e-04, -5.33388578e-04,
          -1.05827290e-03, -6.31083618e-04, 3.82431375e-04,
          5.42563357e-05, 3.52631119e-04, 8.55164719e-04, 4.16311668e-04,
          -5.08051482e-04, 2.26935772e-05, 6.58494464e-05,
          4.51298401e-05, -2.87776813e-04, 6.10905772e-05, 0., 0.,
          -2.81282382e-06, -4.01831994e-06, -1.47036379e-04,
          -4.65544086e-04, -5.46882162e-04, -6.28273992e-04,
          -2.11844454e-04, 6.01141401e-05, 1.46911814e-04,
          4.29359527e-04, 7.23357312e-04, -1.18680880e-04,
          -7.05778075e-04, -2.86635011e-04, -2.31058802e-04,
          4.95946779e-06, -9.49453806e-06, 1.27957363e-04, 0., 0., 0.,
          0., -3.99763725e-04, -4.56450798e-04, 1.02082820e-04,
          3.78953584e-04, 1.84072254e-04, 1.36144125e-04, 2.43892588e-04,
          1.99834860e-04, -9.91144407e-05, -7.35043024e-04,
          -3.27441230e-04, -1.34457965e-04, 1.54251073e-04,
          -6.73536269e-05, -1.25619772e-04, -1.29722803e-05, 0., 0., 0.,
          0., -1.60255004e-04, -1.56602895e-04, 3.58622347e-04,
          1.31070861e-04, 1.13104143e-04, -1.55109403e-04,
          -9.14938573e-05, -1.86007805e-04, -6.25316170e-04,
          -5.64854767e-04, -5.21292968e-04, -1.76727306e-04,
          -1.19323442e-04, 6.05750356e-05, 6.43709936e-05,
          3.28240887e-04, 0., 0., 0., 0., 0., 5.51398298e-05,
          -1.96075140e-04, 6.70662703e-05, -2.09874066e-04,
          3.30699491e-04, 2.17774636e-04, 6.09986746e-05,
          -6.12396223e-04, -6.94310991e-04, -4.28050320e-04,
          -1.34470989e-04, -3.24474560e-04, 2.46958429e-04,
          5.48949582e-04, 5.93314762e-04, 0., 0., 0., 0.,
          -6.34410171e-05, -4.22585261e-04, 1.81630312e-05,
          2.34731458e-04, -2.34883089e-04, 4.20324097e-04,
          3.76183685e-04, -8.20912654e-04, -1.18999265e-03,
          -7.01884564e-04, -4.00782272e-04, -6.38309109e-04,
          -2.59716762e-04, 6.16350269e-04, 6.95304945e-04,
          6.49244117e-04, 0., 0., 0., 0., -1.12493894e-04,
          -3.67362401e-04, 5.20734873e-04, -3.99188502e-05,
          4.28896688e-04, 1.28428300e-03, 7.42969220e-04,
          -1.70650601e-04, -2.39579254e-04, -6.04580739e-04,
          -4.08095802e-05, -4.56231239e-04, 1.51987901e-04,
          8.20399611e-04, 6.16447011e-04, 2.14913787e-04, 0., 0., 0., 0.,
          2.96939921e-04, 4.73856227e-04, 1.13049662e-03, 1.55864551e-03,
          1.23292266e-03, 1.55870907e-03, 7.78578222e-04,
          -2.00456179e-05, 4.49516665e-05, -1.22179874e-04,
          1.48641862e-04, 8.33835948e-05, 8.48395430e-05, 4.48889710e-04,
          4.12122499e-05, -2.98672589e-04, 0., 0., 0., 0.,
          6.41285675e-04, 7.83799915e-04, 1.13354926e-03, 1.13958959e-03,
          1.08405249e-03, 1.00408588e-03, 5.75001992e-04,
          -1.65477250e-04, -7.85995624e-04, 5.97540493e-05,
          2.28048069e-04, -2.73756101e-04, -2.27507000e-04,
          9.66464868e-05, -6.99506636e-05, -6.08921036e-05, 0., 0., 0.,
          0., 7.14236929e-04, 3.43323540e-04, 7.81468756e-04,
          6.20468112e-04, -7.80747723e-05, 4.77821770e-04,
          3.08735034e-04, -6.11191208e-05, 4.85670433e-04,
          2.23029841e-04, -4.63852106e-04, -3.56227574e-05,
          5.00408234e-04, -1.02417776e-04, -1.02242457e-05, 0., 0., 0.,
          0., 0., 3.16686550e-04, 1.56679482e-04, 3.40496845e-05,
          -3.63910600e-04, -1.78515082e-04, 7.19415664e-04,
          4.94733395e-04, 8.13421211e-04, 2.90221418e-04,
          -3.18196369e-04, -1.03845385e-04, 6.17294339e-04,
          2.17369103e-04, -4.36734001e-04, -1.68934930e-05, 0., 0., 0.,
          0., 0., -7.08455354e-06, -2.79345637e-04, -7.11414730e-04,
          -6.99901779e-04, -3.17907950e-04, -2.38878813e-04,
          -5.08932513e-04, 1.15445509e-04, 5.22008886e-05,
          -8.22396032e-05, 4.60401752e-05, 2.17819426e-04,
          -2.78721825e-04, -4.84719727e-04, -9.00986288e-06, 0., 0., 0.,
          0., 0., 0., -2.85136601e-04, -6.61816855e-04, -3.91927984e-04,
          -7.20586686e-05, -6.07402995e-04, -6.70141308e-04,
          -4.74355693e-05, -3.42085114e-04, -4.42840013e-04,
          -4.67148930e-05, 0., -1.87647791e-04, -5.76328312e-04,
          -1.82827207e-04, -7.88363013e-06, 0., 0., 0., 0., 0.,
          -6.44275133e-05, -1.14306880e-04, -2.49396835e-05, 0.,
          -5.84435911e-05, -9.38639496e-05, -7.08407151e-06,
          -5.72339286e-06, 0., 0., 0., -5.15159081e-05, -4.25338832e-04,
          -1.57165254e-04, -1.12623286e-06, 0., 0. ]
      - [ 0., 0., 0., 0., 0., 0., 0., 0., 0., 0., 0., 0., 0., 0., 0., 0.,
          0., 0., 0., 0., 0., 0., 0., 0., 0., 0., 0., 0., 0., 0., 0., 0.,
          0., 0., 0., 0., 0., 0., 0., 0., 0., 0., 0., 0., 0., 0., 0.,
          2.28864201e-06, 6.10713541e-05, 1.80236137e-04, 3.36572732e-04,
          9.42000624e-05, 1.17992873e-04, 2.36921318e-04, 8.25479947e-05,
          -4.42935670e-05, -1.26322611e-05, 1.96897176e-07, 0., 0., 0.,
          0., 0., 0., 0., 0., -1.02938888e-04, -3.69936199e-04,
          -6.55006908e-04, 4.53911780e-05, 1.60583574e-03,
          4.61150397e-04, -5.93407720e-04, 3.82575126e-05,
          1.28648913e-04, -3.58480436e-04, -1.30625471e-04,
          1.17342518e-06, 0., 0., 0., 0., 0., 0., 0., -1.44438760e-04,
          -4.20325727e-04, -8.78981547e-04, -1.05055724e-03,
          -9.33854491e-04, 6.09871524e-04, 4.50744934e-04,
          -2.12678948e-04, -3.28362541e-04, 3.66864464e-04,
          -1.36072224e-04, -1.29489315e-04, -8.71916745e-06, 0., 0., 0.,
          0., 0., 0., 1.17072079e-04, 7.37531955e-05, -3.95472511e-04,
          -7.99016096e-04, -5.81365894e-04, -3.76810756e-04,
          1.31990353e-03, 3.75733449e-04, 1.46742444e-04,
          -6.79037301e-04, -5.69753931e-04, -2.21377821e-04,
          -1.46088671e-04, -5.93009281e-05, -3.26761506e-06, 0., 0., 0.,
          0., -1.45484764e-05, 7.15038232e-06, -4.63597040e-04,
          -9.41112870e-04, -8.35680985e-04, -7.23559468e-04,
          -3.65236803e-04, 6.99025986e-04, 2.33678031e-04,
          2.63496710e-04, -4.41071898e-04, -8.16738408e-04,
          -1.10016408e-04, -2.53843027e-04, -3.14631732e-04,
          -6.39570353e-05, 0., 0., 0., -6.49085860e-06, -1.56725200e-05,
          -6.84777697e-05, -4.77933965e-04, -3.21252795e-04,
          8.92061798e-05, -7.93751562e-04, -3.22117412e-05,
          4.38105169e-04, 4.57613001e-04, 4.30550746e-04,
          -1.42318502e-04, -3.24273482e-04, -1.60371375e-04,
          2.38033375e-04, -3.41090199e-04, -3.20896324e-05, 0., 0., 0.,
          -8.50526339e-06, 4.74543340e-05, 2.29006706e-04,
          -3.06131406e-04, 2.03777046e-04, -1.60212207e-04,
          1.89363258e-04, 3.93668044e-04, 9.10441668e-06, 9.47414810e-05,
          9.12686926e-04, 3.04533110e-04, 1.62541764e-04, 1.26482264e-04,
          3.22226901e-04, -1.17589407e-04, -1.41693581e-05, 0., 0., 0.,
          -5.81939048e-06, 8.35121100e-05, 4.47063503e-04,
          8.48382842e-05, 3.90934933e-04, 9.51741167e-05, 3.52870731e-04,
          -5.90941985e-04, -2.65575410e-03, -1.21797214e-03,
          -4.89613194e-05, -9.60508987e-05, 9.17794940e-04,
          2.19869864e-04, 6.04404719e-04, 2.86202761e-04,
          -1.23671110e-04, 0., 0., 0., 0., 6.97661526e-05,
          6.59690239e-04, 3.09066032e-04, 4.59220173e-04, 2.54093058e-04,
          -6.85001782e-04, -9.31167277e-04, -2.75724870e-03,
          -1.84252323e-03, -1.27836247e-03, 3.98429722e-04,
          1.04889343e-03, 4.43852477e-04, 2.43818111e-04,
          -1.83603901e-04, -4.01931138e-05, 0., 0., 0., 0.,
          1.41694709e-05, 4.67656209e-04, 3.90120520e-04, 9.04791988e-04,
          1.02582897e-04, -9.85664781e-04, -1.79608760e-03,
          -2.13732827e-03, -1.33221014e-03, -1.41103263e-03,
          -2.39469038e-04, 3.78150551e-04, 3.15940153e-04,
          4.45664977e-04, 1.42622384e-05, 0., 0., 0., 0., 0.,
          1.61237349e-05, 3.41915496e-04, -1.74409524e-06,
          4.51538130e-04, -2.95542064e-04, -2.81009008e-04,
          -7.18928059e-04, -2.27837183e-04, -4.64767625e-04,
          8.60948348e-05, 2.55280815e-04, 2.61919718e-04, 8.94943892e-04,
          7.11588771e-04, 1.36395929e-05, 0., 0., 0., 0., 0.,
          -1.37902549e-04, 2.06634882e-04, 5.92323486e-04,
          -7.90310296e-05, 2.22531584e-04, 8.06849217e-04,
          -1.01615128e-03, -6.27735208e-05, 4.32862435e-04,
          8.92578973e-04, -8.75657861e-05, -4.58714698e-04,
          6.10830088e-04, 4.74381290e-04, -2.89923355e-05, 0., 0., 0.,
          0., 0., -2.59331340e-04, -1.80464587e-04, 8.69100506e-04,
          1.05110610e-06, 5.76609920e-04, 1.49814121e-03, 3.29165778e-04,
          1.73893539e-04, 1.33862533e-03, -7.75125227e-05,
          -3.06487753e-04, -5.47367556e-04, 5.65471528e-05,
          2.55533290e-04, -3.02116405e-06, 0., 0., 0., 0., 0.,
          2.14991651e-05, 2.54203216e-04, 1.76564878e-04, 5.46892734e-05,
          8.68720177e-04, 6.03793887e-04, -1.55545975e-04,
          3.86509462e-04, 5.51284640e-04, -7.05207873e-04,
          3.90213623e-04, 2.94309808e-04, -9.84364087e-05,
          4.47490447e-06, 0., 0., 0., 0., 0., 0., 1.12989146e-04,
          4.68989776e-04, -9.04252884e-05, 4.27099178e-04,
          1.14203664e-03, 2.76021569e-06, 2.08029582e-04, 3.05102672e-04,
          9.30777751e-05, 6.44916901e-04, 7.59178423e-04,
          -5.14462481e-05, -4.28650266e-04, -1.02485115e-04, 0., 0., 0.,
          0., 0., 0., 2.07229285e-04, 4.57123417e-04, 2.04350086e-04,
          2.98673840e-05, 2.11141902e-04, -8.89139337e-05,
          -4.51133033e-04, -6.28507056e-04, 4.02776903e-04,
          3.99481505e-04, -1.51428700e-04, -3.87310080e-04,
          -1.44119695e-04, 0., 0., 0., 0., 0., 0., 0., 0., 0., 0., 0.,
          6.77571661e-05, 1.94685912e-04, 1.20310782e-04,
          -4.44257930e-05, 0., 0., 0., 0., 0., 0., 0., 0., 0., 0., 0.,
          0., 0., 0., 0., 0., 0., 0., 0., 0., 0., 0., 0., 0., 0., 0., 0.,
          0., 0. ]
      - [ 0., 0., 0., 0., 0., 0., 0., 0., 0., 0., 0., 0., 0., 0., 0., 0.,
          0., 0., 0., 0., 0., 0., 0., 0., 0., 0., 0., 0., 0., 0., 0., 0.,
          0., 0., 0., 0., 0., 0., 0., 0., 0., 0., 0., 0., 0., 0., 0.,
          2.25437961e-05, 4.48020473e-05, 1.41089695e-04, 1.22218029e-04,
          1.47055893e-04, 1.98454727e-04, 1.09993962e-04, 2.78190982e-05,
          1.11311545e-06, 0., 0., 0., 0., 0., 0., 0., 0., 0., 0.,
          1.66846185e-05, 1.71510328e-04, -7.53541681e-05,
          7.05734245e-04, 8.61042819e-04, 6.41063903e-04, 4.60053125e-04,
          5.36667532e-04, 3.40227911e-04, 7.97883404e-05, 0., 0., 0., 0.,
          0., 0., 0., 0., 0., 4.61196942e-05, -2.27677519e-04,
          -1.20639124e-04, 1.16769792e-04, 5.57455467e-04,
          5.60161832e-04, 2.00667473e-05, -6.95613329e-04,
          -2.03547301e-04, -4.44888225e-04, 6.03186607e-04,
          2.17768553e-04, 7.55420206e-06, 0., 0., 0., 0., 0., 0.,
          2.48401029e-05, -2.98589235e-04, -6.23621745e-04,
          -3.79816775e-04, -2.79661646e-04, 4.30705928e-04,
          -1.58842246e-04, 1.57223738e-04, 3.38571845e-04,
          5.78686304e-04, -6.84060273e-04, 4.08938096e-04,
          9.33316187e-04, 4.77648777e-04, 0., 0., 0., 0., 0.,
          6.43089652e-06, -1.46919090e-04, -9.70626716e-04,
          -2.07549543e-04, -1.47945917e-04, 1.67693113e-04,
          8.82909342e-04, 1.08208253e-04, 4.12035122e-04, 4.07035521e-04,
          1.28723666e-04, -9.11716314e-04, -1.84022079e-04,
          4.65090183e-04, 4.38732008e-04, 0., 0., 0., 0.,
          -3.40954813e-07, -7.40277101e-05, -5.91678370e-04,
          -6.26690802e-04, 5.38848690e-04, -7.35716894e-04,
          -9.13448224e-04, 4.63542703e-04, 7.35433772e-04,
          1.18353264e-03, 5.85019763e-04, -4.65352332e-06,
          -1.61940392e-04, -5.89719566e-04, 2.04201613e-04,
          1.34954127e-04, 0., 0., 0., 0., -1.47663477e-05,
          -3.30291892e-04, -4.66392870e-04, -4.41048644e-04,
          -9.91481706e-04, -6.24664361e-04, -1.65724225e-04,
          -6.88557979e-04, -8.11232603e-04, -7.50142965e-04,
          -6.17025828e-04, -5.50947792e-04, -4.19467542e-04,
          -1.63380857e-04, 1.56705210e-04, 4.52287059e-05, 0., 0., 0.,
          0., -1.23680904e-04, -6.40830200e-04, 3.44825894e-05,
          -2.66164425e-04, -8.52324956e-05, 6.93026406e-04,
          4.23522026e-04, -5.56576299e-04, -1.39481807e-03,
          -1.34121010e-03, -5.77124825e-04, -2.23569019e-04,
          -4.23142890e-04, 1.31625056e-04, 1.90653045e-05,
          1.22954996e-04, 0., 0., 0., 0., -1.85640427e-04,
          -3.57126090e-04, 1.25314901e-03, 5.86819660e-04,
          9.11532377e-04, 1.70076790e-03, 8.67757655e-04,
          -3.26593494e-04, -1.60865113e-03, -1.12954341e-03,
          -8.14150495e-04, -1.16404623e-03, -1.26631767e-03,
          8.30090721e-04, 2.38491164e-04, 2.52711645e-04, 0., 0., 0., 0.,
          -9.27159635e-05, -1.57852846e-04, 9.26996698e-04,
          1.00871932e-03, 5.95436606e-04, 9.60681296e-04, 8.02621013e-04,
          -1.14927499e-03, -1.65433658e-03, -1.10650330e-03,
          -6.91995316e-04, -7.99960049e-04, -3.54699063e-04,
          6.04557921e-04, 4.11730027e-04, 4.09644912e-04, 0., 0., 0., 0.,
          6.52656263e-06, 3.57573968e-04, 6.62614300e-04, 1.15676632e-03,
          9.53748604e-05, 8.44092807e-04, 3.41443112e-04,
          -1.22198230e-03, -1.08659256e-03, -6.36119628e-04,
          -2.89112417e-04, 8.32066347e-04, 3.46082234e-04,
          6.95463910e-04, 5.28044591e-04, 2.83802976e-04, 0., 0., 0., 0.,
          4.04478669e-05, 6.71989983e-04, 4.05245402e-04, 1.19068730e-03,
          5.56932937e-04, 5.90705138e-04, 7.98742753e-04,
          -5.74671605e-04, -1.54272668e-04, -1.21677185e-05,
          5.41473273e-05, 5.87614020e-04, -3.47224763e-04,
          6.85781066e-04, 4.24541970e-04, 7.86641467e-05, 0., 0., 0., 0.,
          7.97038319e-06, 5.29953977e-04, 2.39501329e-04,
          -1.11317378e-04, 7.35283596e-04, 1.05283759e-03,
          8.50137614e-04, 9.75634204e-04, -4.69523686e-04,
          -5.79336949e-04, -2.12536892e-04, -7.41673459e-04,
          -4.41631710e-04, 2.99912499e-04, -6.39193458e-05,
          4.11577366e-06, 0., 0., 0., 0., 0., 7.51050538e-05,
          4.41130396e-04, 4.91448845e-05, 3.53201787e-04, 8.80581560e-04,
          -1.33274923e-04, -6.84539496e-04, 3.47375142e-04,
          2.08014117e-05, -1.78647053e-03, -3.35880875e-04,
          1.69368141e-04, -1.28927204e-04, -1.99037488e-04,
          -2.36426587e-07, 0., 0., 0., 0., 0., 5.39545836e-05,
          3.12835182e-04, -5.95430320e-05, 1.81992782e-05,
          1.48506497e-03, 1.69924693e-03, 1.56695384e-03, 1.04028545e-03,
          -1.14193512e-03, -1.17402466e-03, 6.50971953e-04,
          -1.24248880e-04, -4.63749515e-04, -2.48563621e-04,
          -2.12783925e-05, 0., 0., 0., 0., 0., 7.37317750e-05,
          1.65982972e-04, 9.38184967e-05, -3.44198546e-04,
          -6.25474902e-04, -3.24997702e-04, 3.76356940e-04,
          1.11373130e-03, -2.76768813e-04, -3.59023688e-04,
          -4.60855481e-05, -4.63983044e-04, -4.31045337e-04,
          -3.16427409e-04, -4.42264245e-05, 0., 0., 0., 0., 0., 0., 0.,
          -1.02826365e-04, -3.36540747e-04, -3.36255558e-04,
          -4.77619673e-04, -4.25819337e-04, -2.04852739e-04,
          7.49840410e-06, -4.60469482e-06, -7.18297233e-05,
          -2.16195447e-04, -5.64006696e-05, -3.93638547e-05,
          -1.11800837e-05, 0., 0., 0., 0., 0., 0., 0., -3.55449156e-05,
          -9.01317471e-05, -7.61676756e-06, -4.52937275e-06,
          -8.30385034e-05, -5.13328923e-05, 0., -3.28906776e-06,
          -1.11230293e-05, -1.31562717e-06, 0., 0., 0., 0., 0. ]
      - [ 0., 0., 0., 0., 0., 0., 0., 0., 0., 0., 0., 0., 0., 0., 0., 0.,
          0., 0., 0., 0., 0., 0., 0., 0., 0., 0., 0., 0.,
          -1.17104901e-04, -2.61850364e-04, -1.27566353e-04,
          -8.78106221e-06, 0., 0., 0., 0., 0., 0., 0., 0., 0., 0.,
          4.16975081e-06, 1.25092520e-05, -1.32201912e-05,
          -1.66196769e-04, -3.35654651e-04, -4.08442342e-04,
          4.72350046e-04, 2.78209045e-04, 7.09223270e-04, 1.44045730e-03,
          1.95089800e-04, 7.18384166e-04, 9.18847392e-04, 9.67611413e-05,
          -4.32771449e-05, 0., 0., 0., 0., 0., 1.25092520e-05,
          4.58672585e-05, 1.83156117e-05, 1.85275552e-04, 3.37750535e-04,
          7.12951296e-05, -4.47369355e-04, -1.61044183e-03,
          -8.61641369e-04, 4.39543888e-04, -1.16789993e-03,
          1.32269590e-04, 4.88118181e-04, -2.25648386e-04,
          6.84509723e-05, 3.25005640e-05, 0., 0., 0., 0., 0., 0.,
          8.38634005e-05, -6.15322613e-04, 7.47183803e-04,
          -3.05596302e-04, -1.90062483e-03, -1.44048501e-03,
          -1.64752163e-03, -1.50496067e-04, -8.80018342e-04,
          -2.21253009e-04, 5.89726376e-04, 2.22485687e-04,
          3.52714560e-04, 6.00402782e-05, 0., 0., 0., 0., 0.,
          -3.51745257e-04, -1.41269190e-03, -2.24993494e-03,
          -9.06865462e-04, 4.58333874e-04, -1.24584069e-04,
          3.74471187e-04, 1.84317774e-04, 3.72331822e-04,
          -1.75415480e-04, 4.42617420e-05, 1.65299673e-04,
          8.90966272e-04, 3.35176388e-04, -1.20316997e-06, 0., 0., 0.,
          0., 0., -5.17527049e-04, -1.87262904e-03, -2.19895900e-03,
          -1.43362000e-03, 3.56101023e-04, -3.36403355e-05,
          -2.50455305e-05, 7.96206878e-04, 9.71394038e-05,
          -1.89507227e-05, -1.67123959e-04, 1.40831122e-04,
          -8.79980289e-05, -6.41287770e-05, -3.04291480e-05, 0., 0., 0.,
          0., 0., -1.30880380e-05, -1.09030610e-04, -2.94705736e-04,
          -2.69131473e-04, 5.13191218e-04, 4.52600914e-04,
          1.14686578e-03, 1.24782056e-03, 3.96906020e-04,
          -4.88377351e-04, -4.70144696e-05, -3.96741787e-04,
          -3.86884552e-04, -9.30049791e-05, -9.40943937e-05,
          2.35042186e-04, 0., 0., 0., 0., 0., 2.01333067e-04,
          9.89293098e-04, 7.79076479e-04, 8.14143277e-04, 1.87446806e-03,
          2.03080964e-03, 1.19687046e-03, 1.42240242e-04,
          -5.53404738e-04, -2.44735857e-04, -5.75307175e-04,
          -4.42391523e-04, -6.61355807e-05, -1.38026604e-04,
          2.13194406e-04, 0., 0., 0., 0., 2.05026863e-05, 3.22156528e-04,
          4.90302453e-04, -1.23415812e-04, -4.33722365e-04,
          4.55316069e-04, 2.09234050e-03, 2.08947668e-03, 1.18005334e-03,
          -1.29389256e-04, -9.53410854e-05, -7.32491841e-04,
          -7.23072619e-04, -3.95331444e-04, -2.20672140e-04, 0., 0., 0.,
          0., -8.52380526e-06, -1.22357058e-04, -1.67711143e-04,
          -7.95033004e-04, -1.12013135e-03, -9.84875718e-04,
          3.77720193e-04, 1.13910879e-03, 2.28262600e-03,
          -5.80251653e-05, 2.82255525e-04, -8.11634585e-04,
          -7.96466251e-04, -6.40738115e-04, -2.98570085e-04,
          -2.15590717e-05, 0., 0., 0., 0., -4.39318173e-05,
          -3.55739292e-04, -4.21247736e-04, -7.84272619e-04,
          -1.53595349e-03, -2.29240675e-03, -9.92274843e-04,
          9.86471307e-04, 2.07700371e-03, -1.40172066e-04,
          -2.29916404e-04, -1.06084766e-03, -7.80281669e-04,
          -2.69389478e-04, -4.75890956e-05, -3.21569360e-06, 0., 0., 0.,
          0., -5.77224455e-05, -4.18455194e-04, -3.84504820e-04,
          -8.62241897e-04, -1.22648093e-03, -1.29477796e-03,
          -2.06149695e-03, 7.60491355e-04, 1.61698717e-03,
          -1.49039121e-03, -7.52089429e-04, -3.02451390e-05,
          2.06429650e-05, -1.45059405e-03, -9.61982238e-04,
          -8.84423323e-04, -5.76183258e-04, -3.61128914e-04, 0., 0.,
          -6.83098915e-05, -5.37435000e-04, -1.70072206e-04,
          -1.13775628e-03, -6.68705266e-04, -2.41940317e-04,
          -1.95262278e-03, -8.97913240e-04, -2.89593067e-04,
          -9.70324851e-04, -5.16234897e-04, 2.03060714e-04,
          6.60047866e-04, -9.94142029e-04, 7.66152443e-05,
          -1.92427295e-04, -3.18901526e-04, -8.92678217e-05, 0., 0.,
          -6.53485040e-05, -5.53200778e-04, 1.34182672e-04,
          -8.09283083e-05, -5.62295842e-04, -1.40013208e-03,
          -7.07734667e-04, -1.76597259e-03, 2.80804641e-04,
          -3.61424522e-04, -2.49044388e-04, 6.72913811e-05,
          -1.60815998e-03, 3.27374117e-04, 8.54030193e-04,
          1.62365159e-03, -6.24514418e-04, -1.93186628e-04, 0., 0.,
          -1.18252065e-05, -2.76027917e-04, 3.21210362e-04,
          1.31172058e-03, 6.31708303e-04, 6.62205974e-04, 1.71109190e-04,
          -6.83922553e-04, 2.47259828e-04, 1.91155981e-04,
          -2.06134678e-03, -2.18076608e-03, -1.00659765e-03,
          -1.51525874e-05, -4.22257581e-04, 3.78658442e-04,
          -5.45583171e-05, -3.62224928e-05, 0., 0., 0., 1.05807921e-05,
          -6.14212826e-04, -4.64037119e-04, 4.48569685e-04,
          4.59370145e-04, -5.16808475e-04, -5.43856528e-04,
          -2.89402757e-04, -4.24570113e-04, -4.24159516e-04,
          -1.02321256e-03, -7.72082887e-04, -3.02087516e-04,
          -4.57288879e-05, 0., 0., 0., 0., 0., 0., 1.57201066e-05,
          -2.82120509e-05, -6.01923712e-05, -8.42638474e-06,
          -2.36378837e-04, -8.38218621e-05, 8.00952766e-05,
          -1.90910680e-04, -1.08269647e-04, 7.80715724e-04,
          -5.64972172e-04, -1.41021714e-03, -7.20783602e-04, 0., 0., 0.,
          0., 0., 0., 0., 0., 0., 0., 0., 0., 0., 0., 0., 0., 0., 0., 0.,
          0., 0., 0., 0., 0., 0., 0., 0., 0., 0., 0., 0., 0., 0., 0., 0.,
          0., 0., 0., 0., 0., 0., 0., 0., 0. ]
      - [ 0., 0., 0., 0., 0., 0., 0., 0., 0., 0., 0., 0., 0., 0., 0., 0.,
          0., 0., 0., 0., 0., 0., 0., 0., 0., 0., 0., 0., 0., 0., 0., 0.,
          0., 0., 0., 0., 0., 0., 0., 0., 0., 0., 0., 0., 0.,
          1.51411414e-05, 2.34744020e-05, 2.38578177e-05, 3.01625201e-04,
          1.57327857e-04, -8.40153953e-05, 5.53055324e-05,
          -9.06267262e-04, 5.86491515e-05, -3.80624101e-06, 0., 0., 0.,
          0., 0., 0., 0., 0., 0., 9.54636125e-05, 5.09891775e-04,
          6.13011012e-04, 5.61568959e-05, -2.12519590e-04,
          -1.42302818e-03, -7.92587583e-04, -1.23801437e-04,
          -1.73459214e-03, 4.52959212e-04, 1.99115268e-04,
          -1.19030010e-04, -3.28393207e-06, 0., 0., 0., 0., 0.,
          -8.21316717e-05, -2.88136915e-04, -2.09819540e-04,
          5.12425147e-04, 2.98530329e-04, -1.39456207e-03,
          -8.79256928e-04, -1.11119589e-03, -4.30325104e-04,
          8.59390479e-04, -5.34647668e-04, 1.07813976e-04,
          8.56061059e-04, 4.22306213e-04, -6.67378845e-05,
          -9.09088158e-06, 0., 0., 0., 0., -2.85522867e-04,
          -3.43975960e-04, -3.28207709e-04, 2.14044994e-04,
          -7.95022701e-04, -1.01502636e-03, -3.06195841e-04,
          -1.19769527e-03, -5.55696606e-04, -1.32886882e-04,
          -7.83180818e-04, -2.56370491e-04, 5.04690513e-04,
          1.00109016e-03, -3.03565874e-04, -8.40077628e-05, 0., 0., 0.,
          0., -2.59202585e-04, -4.80362418e-04, -5.55183273e-04,
          -3.60772858e-04, -3.73715447e-04, -3.43781256e-04,
          4.30063927e-04, 1.04993477e-03, 1.12988171e-03,
          -1.38638215e-03, -1.16724509e-03, 3.21641943e-04,
          1.16007439e-04, -5.32587641e-04, -4.42862365e-04,
          -3.65793057e-05, 0., 0., 0., 0., -5.01199975e-04,
          -5.00378432e-04, -3.28773138e-04, -1.72337997e-04,
          1.42714023e-04, -3.09888055e-05, 1.07150641e-03,
          2.05584569e-03, 2.22722115e-03, -1.12991096e-04,
          -1.41550624e-03, -5.39685716e-04, -9.99196782e-04,
          -5.31576574e-04, -1.67772072e-04, 1.25194681e-04,
          4.08674241e-04, 0., 0., 0., -1.31538545e-04, -7.08284497e-05,
          2.67759635e-04, 1.11062312e-03, 4.70400963e-04,
          -5.02004405e-04, -3.33397737e-04, 2.97595165e-04,
          9.28659341e-04, 1.88119046e-03, -7.00008939e-04,
          -1.21188280e-03, -8.27833021e-04, -9.63834100e-05,
          -9.12301675e-06, 1.12055837e-04, 3.55942058e-04, 0., 0., 0.,
          0., 6.43013263e-05, 6.95290451e-04, 5.42507158e-04,
          -3.43314343e-04, -9.96001763e-04, -1.03992177e-03,
          -6.32016629e-04, 9.51197115e-04, 1.85988157e-03,
          -7.54729263e-04, -1.31554354e-03, -5.17989800e-04,
          -3.43879801e-05, -1.28584743e-05, 0., 0., 0., 0., 0., 0.,
          1.41462908e-04, 1.35025082e-04, -4.26496961e-04,
          -1.07533042e-03, -8.51722260e-04, -7.17543953e-05,
          -5.66334231e-04, 9.66369524e-04, 1.16419506e-05,
          -1.14447197e-04, -1.40759489e-03, -7.13249436e-04,
          -2.96383514e-04, -3.49361289e-05, -8.31450234e-06, 0., 0., 0.,
          0., -1.45985650e-05, -9.35635253e-05, 1.00685458e-04,
          1.49880390e-04, -4.23045014e-04, 3.22130451e-04,
          9.25082204e-05, 5.95483347e-04, 1.68011291e-03,
          -7.77019595e-04, 4.47182305e-04, -1.53614080e-03,
          -1.10312190e-03, -5.64890681e-04, -1.32120316e-04,
          -2.06895747e-05, 0., 0., 0., 0., -3.75059390e-05,
          -4.27862367e-04, -4.54958063e-04, 1.68851548e-04,
          5.09734149e-04, 8.80476960e-04, 1.49238412e-03, 1.82269502e-03,
          2.29028193e-03, -2.12762412e-03, -5.46401192e-04,
          -1.79279305e-03, -9.69567220e-04, -8.88939016e-04,
          -2.27941418e-04, -2.15596974e-05, 0., 0., 0., 0.,
          -6.71488087e-05, -7.81196926e-04, -1.07721006e-03,
          -7.03906291e-04, -1.23997382e-03, -2.58662712e-05,
          1.17261463e-03, 1.31638104e-03, 6.53991825e-04,
          -7.98304973e-04, 3.48759553e-04, -8.72214558e-04,
          2.56669766e-04, 2.10472004e-04, 5.82842680e-04, 5.01017435e-04,
          9.16802037e-06, 0., 0., 0., -6.19757411e-05, -7.58650480e-04,
          -8.16273910e-04, -2.01427654e-04, -1.37519545e-03,
          6.64105301e-06, 1.00245245e-03, 4.75598965e-04,
          -7.63821823e-04, -5.55004153e-05, 4.74767992e-04,
          4.60672629e-04, -2.48015567e-04, 4.00878082e-04,
          7.66318582e-04, 9.14601784e-04, 1.10016241e-04, 0., 0., 0.,
          -2.59433345e-05, -3.30296840e-04, -2.16353990e-04,
          8.95570498e-04, -1.40051707e-04, -3.37250327e-04,
          -1.36546721e-03, 6.88304659e-04, -2.91308359e-04,
          -2.38363955e-05, 4.58470546e-04, 2.39324494e-04,
          -2.08052719e-04, -4.78513630e-06, -1.67628914e-05,
          1.41137512e-04, 9.16802037e-06, 0., 0., 0., -2.04544831e-05,
          -1.57331131e-04, -2.57719337e-04, 8.23047376e-05,
          7.21906312e-04, 3.49848386e-04, -7.61344505e-04,
          4.14056238e-04, -7.31662905e-04, -4.46046994e-04,
          4.87405050e-04, 2.53128033e-04, 4.14798764e-04,
          -9.33432166e-05, -3.27950293e-05, -2.04968933e-06, 0., 0., 0.,
          0., -7.49997707e-05, -5.36362000e-04, -5.54466387e-04,
          -1.32379483e-03, -1.26683805e-03, -8.65099253e-04,
          -1.48859189e-03, -9.16629273e-04, -6.34006690e-04,
          -4.01901780e-04, -3.26139096e-04, 1.03727449e-04,
          1.85093668e-04, -7.06769497e-05, -2.37422337e-05, 0., 0., 0.,
          0., 0., -2.72726447e-05, -1.99999398e-04, -1.95453962e-04,
          -1.20454184e-04, 3.93799019e-05, 4.45681071e-05,
          -7.67131220e-04, -1.11349602e-03, -1.24318205e-04,
          -6.83229757e-07, -9.73602437e-06, -2.59627304e-05,
          -4.30434739e-05, -2.73291917e-05, -6.14906776e-06, 0., 0., 0.,
          0., 0., 0., 0., 0., 0., 0., 0., 0., 0., 0., -5.12422332e-07,
          -7.00310511e-06, -1.24689432e-05, -1.16149058e-05,
          -3.41614879e-07, 0., 0., 0., 0. ]
      - [ 0., 0., 0., 0., 0., 0., 0., 0., 0., 0., 0., 0., 0., 0., 0., 0.,
          0., 0., 0., 0., 0., 0., 0., 0., 0., 0., 0., 0., 0., 0., 0., 0.,
          0., 0., 0., 0., 0., 0., 0., 0., 0., 0., 0., 0., 0.,
          6.48595815e-05, 9.85008446e-05, -4.03677586e-05,
          -2.66891720e-06, 1.73433418e-05, -4.24512109e-06,
          7.04590930e-05, 2.72222445e-04, 3.09088791e-04, 3.30095732e-04,
          -4.18103155e-05, -1.95264747e-05, 0., 0., 0., 0., 0., 0., 0.,
          1.21855737e-04, 6.65995700e-04, 5.93961799e-04, 5.57484121e-08,
          2.08126075e-05, 1.23366248e-04, 3.48065078e-04, 1.01040490e-03,
          -1.31159672e-04, 6.21872547e-04, -5.20474532e-05,
          -1.19313183e-04, 5.71673227e-05, 2.77453619e-05, 0., 0., 0.,
          0., 0., 0., 5.52308979e-04, 4.37604293e-04, -1.40176868e-04,
          4.47590632e-04, 6.62150414e-05, 3.56793404e-04, 6.46338332e-04,
          1.01402786e-03, -3.96691525e-04, 9.77580203e-04,
          -9.72575708e-06, 1.02879902e-04, 9.50686153e-05,
          3.92359616e-05, 0., 0., 0., 0., 0., 0., 4.01083889e-05,
          3.10522068e-04, 2.63582275e-04, -5.83279643e-06,
          1.76723013e-04, 3.53209267e-04, 5.56561514e-04,
          -7.53844273e-04, -3.51689348e-04, 5.64212096e-04,
          3.59410711e-04, 3.28081107e-04, -8.49786884e-05,
          -2.63899146e-05, 0., 0., 0., 0., 0., -2.19139274e-05,
          -2.68011092e-04, -3.34026729e-04, 3.47672874e-04,
          -5.53090358e-04, 2.71737750e-04, 1.80816540e-04,
          -2.56158848e-04, -9.05746419e-04, 1.01360527e-03,
          6.96734991e-04, 4.29839129e-04, -2.60907909e-05,
          -2.47294549e-04, -2.24108699e-05, 0., 0., 0., 0., 0.,
          -1.07262902e-04, -3.62776860e-04, -5.98876213e-04,
          -5.06268232e-04, -1.06147095e-03, -4.39611671e-04,
          6.85237930e-04, -1.99943242e-04, 6.13464916e-04,
          6.57229102e-04, 4.11134301e-04, 1.08796659e-04,
          -2.55510793e-04, -1.76308386e-04, 6.06335607e-06,
          3.10632204e-05, 0., 0., 0., -2.42206552e-05, -2.52586848e-04,
          -2.12923871e-04, -4.70310479e-04, -1.04150444e-03,
          -1.61677646e-03, 1.06534186e-04, 6.01101841e-04,
          1.04647735e-03, 9.72158858e-04, -1.15310587e-03,
          2.37058892e-04, -1.73306966e-04, -3.02180881e-04,
          -1.75110923e-04, -2.01576549e-05, 2.40643603e-05, 0., 0., 0.,
          -4.61345844e-05, -2.92954588e-04, -1.04719315e-04,
          -3.96451302e-04, -1.29889022e-03, -1.59255008e-03,
          -3.87633976e-04, 1.16888456e-04, 1.93642604e-03,
          1.94891705e-04, -1.51319627e-03, -1.66514932e-04,
          -4.49828134e-04, -5.11476246e-04, -2.11036444e-04,
          -5.80694395e-05, -9.47055196e-06, 0., 0., 0., -3.57543031e-05,
          -2.89613992e-04, -2.36290231e-04, -4.21168224e-04,
          -1.16030010e-03, -1.00037432e-03, -1.93961849e-03,
          -5.62289322e-04, -5.94849735e-05, -1.15602999e-03,
          -1.35801628e-03, -9.08224611e-04, -4.84450342e-04,
          -4.01946221e-04, -1.80468749e-04, -1.54519530e-05, 0., 0., 0.,
          0., 0., -1.74046814e-04, -1.79693830e-04, 9.46439650e-06,
          -2.64976232e-04, -1.73759856e-03, -6.67263055e-04,
          -4.49708969e-05, -2.64629401e-04, -9.54805699e-04,
          -5.48080483e-04, -9.54304589e-04, -4.75938141e-04,
          -3.45836044e-04, -1.51758912e-04, -1.53884764e-06, 0., 0., 0.,
          0., -1.07545441e-06, -2.45771344e-06, 2.64075235e-04,
          2.47471820e-04, -2.77972780e-04, -8.77758721e-04,
          -7.13164278e-04, -8.66209390e-04, -3.32936906e-04,
          -7.09391315e-04, -1.19432574e-03, -1.33691693e-03,
          -9.44679952e-04, -3.40856437e-04, -7.41682670e-05,
          -1.89733248e-06, 0., 3.14001250e-06, 0., 0., -2.98737348e-07,
          -7.24245110e-05, 8.15360272e-06, -2.28515382e-05,
          2.61969486e-04, 4.94593813e-04, -3.63831903e-04,
          4.05454834e-04, 9.76210926e-04, -2.60016386e-04,
          2.99187028e-04, 2.60829576e-04, -8.33133527e-05,
          -1.79089271e-04, -9.02186821e-06, -1.25469683e-06, 0.,
          1.54585232e-05, 0., 0., 0., -2.08502224e-05, 6.81561050e-06,
          1.79064868e-04, 7.68780592e-04, 8.41285859e-04,
          -1.81435826e-04, 1.43962877e-03, 6.80660247e-04,
          -6.93590729e-04, 4.45758778e-04, 9.50444839e-04,
          7.61232921e-04, 1.95730565e-04, 0., 0., 0., 1.69077589e-06, 0.,
          0., 0., 0., 1.75602036e-04, 4.46835387e-04, 9.58149671e-04,
          8.27716955e-04, 8.41381319e-04, 1.25849736e-03, 6.23705680e-04,
          -6.41054794e-06, 4.68516693e-04, 8.57733015e-04,
          8.54431943e-04, 4.16595227e-04, 0., 0., 0., 0., 0., 0., 0.,
          2.84927341e-06, 2.56008410e-04, 4.88743011e-04, 1.22249476e-03,
          -5.92526805e-04, 4.21814562e-04, 3.47457273e-04,
          2.21217706e-05, 2.51079502e-04, 4.67947160e-04, 6.56636606e-04,
          9.35350254e-04, 4.91103739e-04, 0., 0., 0., 0., 0., 0., 0.,
          1.28217307e-05, 2.12351952e-04, 1.40262666e-04, 5.16938337e-04,
          -1.45660291e-04, 1.06071921e-05, -6.51588722e-04,
          -2.82293506e-04, -1.73819499e-04, 1.24980492e-04,
          2.50452267e-05, 1.37760682e-04, 7.91506172e-05, 0., 0., 0., 0.,
          0., 0., 0., 0., 0., 1.07578508e-05, 9.22568361e-05,
          1.17198295e-04, 3.54334543e-06, -7.31217558e-04,
          -6.91014808e-04, -9.17235157e-05, 0., 0., 0., 0., 0., 0., 0.,
          0., 0., 0., 0., 0., 0., -3.73720150e-06, -8.79341496e-06, 0.,
          0., -2.42270526e-05, -1.86361945e-06, 0., 0., 0., 0., 0., 0.,
          0., 0., 0. ]
      - [ 0., 0., 0., 0., 0., 0., 0., 0., 0., 0., 0., 0., 0., 0., 0., 0.,
          0., 0., 0., 0., 0., 0., 0., 0., 0., 0., 0., 0., 0., 0., 0., 0.,
          0., 0., 0., 0., 0., 0., 0., 0., 0., 0., 0., 0., 0.,
          1.67656890e-05, 2.87411804e-05, 8.48002128e-06, 1.22208832e-04,
          2.45952571e-04, 3.91412141e-05, 4.00177436e-04, 1.48129038e-04,
          9.50958129e-05, -5.75370468e-05, -9.00322048e-05,
          -2.33928840e-05, -2.49308268e-05, -1.40926923e-05, 0., 0., 0.,
          0., 0., 1.03793645e-04, 4.51502448e-04, 4.61499556e-04,
          1.71517662e-04, 3.94262286e-04, -1.58747964e-04,
          -7.53396889e-04, 1.92820462e-05, 5.39341767e-04,
          3.84471699e-04, -4.59595758e-04, -8.84071400e-04,
          -3.49198526e-04, -2.09680293e-04, -6.79011573e-05, 0., 0., 0.,
          0., 0., 3.06032016e-04, 7.55839690e-04, 6.39396021e-04,
          3.44297951e-05, -5.29894081e-04, -5.26986958e-04,
          -3.05255817e-04, 1.65533100e-04, -2.03030810e-04,
          -4.00544348e-04, -7.99662375e-04, -5.56482875e-04,
          -4.38437331e-04, -3.62241117e-04, -9.43614723e-05, 0., 0., 0.,
          0., -7.00806004e-06, 2.74712638e-05, 3.00959975e-04,
          1.16762363e-04, 3.56966921e-04, 3.63782965e-05,
          -2.78747379e-04, 4.00152894e-05, 3.46026005e-04,
          -7.32322573e-04, 3.08792951e-04, 1.88681297e-04,
          -5.39426110e-05, -1.00651849e-03, -9.30394570e-04,
          -2.37869404e-04, -7.62066702e-06, 0., 0., 0., -2.98646228e-05,
          -1.94053253e-04, -3.50925140e-04, -1.86951991e-04,
          3.06257891e-04, 7.90473598e-04, 8.39071508e-05,
          -1.46436389e-04, 2.20374452e-04, 2.92723998e-04,
          2.42063281e-04, -5.17751498e-04, -1.28175307e-03,
          -1.27599493e-03, -9.99005395e-04, -4.91143495e-04,
          -3.97968142e-05, 0., 0., -1.00579712e-07, -2.51686342e-05,
          -3.27989197e-04, -4.13687172e-04, -7.19614181e-05,
          -3.32389813e-04, 3.18355887e-04, -7.82140298e-04,
          -4.47175233e-04, 6.09010865e-04, 8.63736088e-04,
          2.94199475e-04, -5.06955665e-04, -4.81858850e-04,
          -3.66688677e-04, -2.79986300e-04, -1.65423808e-05,
          -1.46675402e-05, 0., 0., -1.23790414e-07, -4.27816267e-05,
          -1.43770521e-04, 5.17981243e-04, 4.61726158e-04,
          -3.74082709e-04, -3.27975402e-04, -5.08060737e-04,
          7.89551879e-04, 1.33341248e-03, 1.07428781e-03,
          -7.99588379e-05, -4.72588668e-04, -2.59503053e-04,
          -1.85435973e-04, -7.16073118e-05, 8.05274613e-05,
          -1.65468475e-06, 0., 0., -1.23790414e-07, 1.73202716e-05,
          3.09992174e-04, -2.69435368e-05, -5.74336096e-04,
          -1.06327154e-03, -1.20103918e-03, 1.33484122e-04,
          1.85832684e-03, 1.62192201e-03, 3.70140595e-04,
          -6.95470255e-04, -7.01919198e-04, -3.82615428e-04,
          -1.78566101e-04, -1.48500949e-05, 1.71267544e-07, 0., 0., 0.,
          -2.32107027e-07, 5.36252192e-05, -2.89719406e-04,
          -9.92246903e-04, -1.17762783e-03, -1.28491013e-03,
          -1.09447434e-03, 5.24690782e-04, 1.50071469e-03,
          2.34816864e-04, -7.03578349e-04, -7.63694174e-04,
          -6.02049404e-04, -2.75839149e-04, -9.68560125e-05,
          -7.49941100e-05, 2.39774567e-06, 4.28168846e-07, 0., 0.,
          -1.00579712e-07, -1.53273009e-04, -3.82738421e-04,
          -3.98132019e-04, -3.33011849e-04, -5.35502331e-04,
          5.15770480e-05, 8.43847636e-04, 8.18395172e-04, 6.54332180e-05,
          -5.73499943e-04, -8.22720875e-04, -6.76437281e-04,
          -3.70686379e-04, -1.18882228e-04, -8.97907667e-05,
          4.28168846e-07, 0., 0., 0., 0., 1.66230354e-08,
          -4.86746372e-04, -4.36320406e-04, -9.93819631e-05,
          -1.22001067e-04, 4.53217479e-04, 5.12730563e-04,
          9.52853770e-06, -1.27459306e-03, -1.05459499e-03,
          -8.51884484e-04, -5.26502379e-04, -4.39460011e-04,
          -1.57441769e-04, -8.06236349e-05, 0., 0., 0., -2.31802478e-05,
          -3.51567105e-05, -2.17654204e-04, -9.66024585e-04,
          -1.18243904e-03, -7.21313874e-04, 7.18973679e-05,
          4.31892870e-04, 1.26018643e-03, 8.71082884e-04,
          -1.02375355e-03, -1.17229600e-03, -4.80438932e-04,
          8.39973727e-05, -1.16104766e-05, 4.56616362e-05,
          9.12117684e-05, 2.12000532e-06, 0., 0., -4.75195084e-05,
          -9.61980331e-05, -1.20369994e-04, -4.18814278e-04,
          -1.57428405e-03, -7.60428258e-04, 1.60312557e-04,
          3.47855472e-04, 8.51001998e-04, 1.26285024e-03,
          -1.79971859e-04, -7.56895679e-06, 7.10071006e-04,
          1.58388357e-04, 1.51731176e-04, 7.22287004e-05, 1.89834478e-04,
          2.54400638e-05, 0., 0., -1.54534985e-06, -1.19764618e-05,
          -5.71779456e-05, 5.53530816e-04, 6.74614799e-04,
          -1.78064409e-04, -9.75858304e-04, -1.20192429e-03,
          -9.50823829e-04, -5.72660574e-05, 7.86173507e-04,
          1.12065871e-04, -9.42840779e-06, 2.93687281e-05,
          -1.93966134e-05, -1.18838630e-04, -1.77743568e-05,
          2.12000532e-06, 0., 0., 0., 0., 0., 1.83784636e-04,
          9.76234296e-05, -6.15203928e-04, -1.26975449e-03,
          -1.14362256e-03, -9.86295054e-04, -4.02196238e-05,
          9.18591570e-04, 4.34934307e-04, -2.80168279e-05,
          3.95136070e-04, 3.32255950e-05, -5.03784504e-05,
          -3.31821798e-06, 0., 0., 0., 0., 0., 0., -6.67767526e-05,
          -1.93131200e-04, -2.14360567e-04, -2.88364623e-04,
          -4.89361992e-04, -4.47605882e-04, -3.96054675e-04,
          -3.77311022e-04, -7.90894410e-05, 1.95788743e-05,
          1.82881573e-04, 6.47528896e-06, -1.39264216e-07, 0., 0., 0.,
          0., 0., 0., 0., -9.71298232e-06, -2.87342391e-05,
          -1.17365207e-05, 0., -3.79765843e-05, -2.03389165e-04,
          -1.95699686e-04, -1.55954491e-04, -3.38381273e-04,
          -9.09644368e-05, -3.98769407e-06, 0., 0., 0., 0., 0., 0., 0.,
          0., 0., 0., 0., 0., 0., -3.53165797e-06, -2.58988239e-05, 0.,
          0., 0., 0., 0., 0., 0., 0., 0., 0. ]
      - [ 0., 0., 0., 0., 0., 0., 0., 0., 0., 0., 0., 0., 0., 0., 0., 0.,
          0., 0., 0., 0., 0., 0., 0., 0., 0., 0., 0., 0.,
          -4.42445380e-05, -1.38387855e-04, -2.31123733e-04,
          -1.26400782e-05, -2.09473887e-06, -3.85239360e-07, 0., 0., 0.,
          0., 0., 0., 0., 0., 0., 0., 0., 5.49501783e-06, 8.24621929e-06,
          -7.32381232e-05, -1.76445916e-04, -1.31634471e-04,
          -7.10675435e-04, -4.15265386e-04, -2.95779406e-04,
          -5.58120024e-04, -1.30632499e-04, 2.45461288e-05,
          -7.28004807e-06, 0., 0., 0., 0., 0., 0., 0., 7.49602550e-05,
          2.62559130e-04, 1.95057975e-04, -1.03778679e-04,
          7.28031446e-05, 4.23366553e-04, 6.68766952e-05, 2.02001887e-04,
          -4.61023155e-04, -3.83359118e-04, -5.09420206e-05,
          -5.39198736e-05, 8.01319766e-05, -6.97848009e-05,
          -8.85578920e-05, 0., 0., 0., 0., 0., 2.07595396e-04,
          5.38092339e-04, 4.58577706e-04, 1.59933639e-04, 2.73830403e-04,
          6.89586625e-04, 5.62691712e-04, 7.33242428e-04,
          -1.67696955e-04, 4.58633935e-04, 4.63842822e-04,
          2.79993488e-04, 3.70671842e-05, -5.34896331e-04,
          -6.14191813e-04, -3.88512039e-04, 0., 0., 0., 0.,
          6.69958972e-05, 4.05038270e-04, 4.67103877e-04, 6.19567989e-04,
          2.87781731e-04, 7.69028207e-04, 2.58020853e-04, 8.19418230e-04,
          3.63210311e-05, 7.69055565e-04, 2.24094736e-04,
          -9.46563523e-05, -2.95252103e-04, -4.99339600e-04,
          -4.42789431e-04, -3.14237666e-04, 0., 0., 0., 0., 0.,
          1.52151970e-05, 2.31247279e-04, 6.12647505e-04, 4.31879889e-04,
          6.11062453e-04, -1.31975266e-05, 4.72369866e-04,
          4.44081903e-04, 7.03386089e-04, 4.55661611e-05,
          -1.86697202e-04, -1.46707753e-04, -1.96691926e-05, 0., 0., 0.,
          0., 0., 0., -4.36305236e-05, -2.56373198e-04, -4.34012065e-04,
          1.01888199e-05, 3.16631165e-04, 6.80939760e-04, 3.80742247e-04,
          1.26867089e-03, 1.51060848e-03, 6.62254577e-04,
          -1.36039540e-04, -4.34503832e-04, -1.56107853e-04,
          7.66398807e-06, 1.28649699e-04, 0., 0., 0., 0.,
          -2.67125665e-06, -1.43358498e-04, -1.80029892e-04,
          -4.08158317e-04, -2.21246592e-04, 5.40159002e-04,
          -1.30263608e-04, 1.09119725e-03, 1.01576746e-03,
          8.17542430e-04, 2.65323266e-04, -3.02348897e-04,
          -3.55182652e-04, -1.52222216e-04, -1.22329220e-04,
          1.12049740e-04, 0., 0., 0., 0., -8.28089542e-05,
          -2.11402148e-04, -2.51400343e-04, -4.49708925e-04,
          -6.65783882e-04, -5.33647661e-04, -2.12122046e-04,
          5.49126940e-04, 1.82548276e-04, 1.59800111e-04,
          -7.55381130e-04, -5.69792406e-04, -2.99621897e-04,
          -1.63729390e-04, -1.68289160e-04, 7.54122630e-06, 0., 0., 0.,
          0., -1.34442176e-04, -2.37290136e-04, -2.76514969e-04,
          -5.55043982e-04, -9.73500893e-04, -8.30545672e-04,
          -5.34413157e-05, 3.43641354e-04, 6.29229413e-04,
          -5.52557467e-05, -7.22226338e-04, -8.00669950e-04,
          -2.15125241e-04, -3.51035909e-04, -5.85697489e-05,
          1.05577172e-04, 1.88530666e-05, 0., 0., 0., -1.52648747e-04,
          -3.07537353e-04, -1.91666710e-04, -8.50515440e-04,
          -8.76777049e-04, -1.13160512e-03, 5.33103768e-04,
          1.87193247e-04, 2.72544166e-05, -9.47736437e-04,
          -1.41894596e-03, -9.71762231e-04, -4.30430868e-04,
          -3.91000940e-04, -5.12608312e-05, 1.88530666e-05, 0., 0., 0.,
          0., -9.70464171e-05, -3.20896797e-04, -2.04069482e-04,
          -6.68173889e-04, -1.36968656e-03, -1.61371101e-03,
          2.37838700e-04, -1.68209168e-04, -1.36274577e-03,
          -1.32167409e-03, -8.32841033e-04, -7.74849730e-04,
          -3.69591551e-04, -2.08523124e-04, -3.83857077e-05, 0., 0., 0.,
          0., 0., -7.14768321e-05, 2.26261709e-05, 1.03561244e-04,
          -6.89188077e-04, -1.65369338e-03, -7.43917946e-04,
          1.43532874e-04, -3.22423439e-05, -8.70838645e-04,
          -7.99424073e-04, -5.95000223e-04, 1.29563647e-04,
          -1.09498149e-04, -5.22495029e-05, 3.42576059e-05,
          7.86785336e-07, 0., 0., 0., 0., -4.16948205e-05,
          2.39988090e-04, 4.10835375e-04, -5.96329191e-05,
          -2.55594641e-04, 3.98087614e-05, -9.29260452e-04,
          -2.10992483e-04, -3.91561916e-04, -9.11297975e-04,
          -2.05170902e-04, 1.28284242e-04, -5.02213188e-05,
          3.42114618e-05, 7.98587134e-05, 9.44142448e-06, 0., 0., 0., 0.,
          -2.64729010e-06, 3.98963253e-04, 4.18694166e-04,
          -8.92190001e-05, 5.55606443e-04, 1.56630922e-04,
          -1.39239302e-03, -3.50112008e-04, -7.41378462e-04,
          -5.75199898e-04, -1.12125883e-04, 5.88729745e-05,
          5.03253286e-05, 1.57357067e-06, 1.21951734e-05, 7.86785336e-07,
          0., 0., 0., 0., 4.43105682e-06, 4.19097865e-04, 2.49412173e-04,
          -3.97862721e-04, 1.09962763e-04, 4.70034982e-04,
          2.30703343e-04, -1.45144077e-04, 2.27113633e-04,
          6.76257594e-04, 4.22414567e-04, 4.13194910e-04, 5.90657437e-05,
          0., 0., 0., 0., 0., 0., 0., 1.99397546e-05, 3.74424300e-04,
          1.61733566e-04, -3.00537467e-05, -2.76963910e-05,
          1.01075704e-04, 4.54415967e-05, 2.70174532e-05, 2.10789804e-04,
          7.18282536e-04, 4.29225271e-04, 2.44483032e-04, 8.67313884e-06,
          0., 0., 0., 0., 0., 0., 0., 0., 0., 0., 0., 0., 0., 0., 0., 0.,
          0., 0., 0., 0., 0., 0., 0., 0., 0., 0., 0., 0., 0., 0., 0., 0.,
          0., 0., 0., 0., 0., 0., 0., 0., 0., 0., 0., 0. ]
      - [ 0., 0., 0., 0., 0., 0., 0., 0., 0., 0., 0., 0., 0., 0., 0., 0.,
          0., 0., 0., 0., 0., 0., 0., 0., 0., 0., 0., 0., 0., 0., 0., 0.,
          0., 0., 0., 0., 0., 0., 0., 0., 0., 0., 0., 0., 0.,
          4.18903437e-05, 7.18120209e-05, 8.43644648e-06, 6.27728004e-05,
          2.77553248e-04, 1.25921506e-04, 8.29005730e-05, 0.,
          8.06411554e-05, 4.03205777e-05, 0., 0., 0., 0., 0., 0., 0., 0.,
          0., 6.88198488e-05, 5.34788414e-04, 4.87905170e-04,
          -3.78053315e-04, 9.34031123e-05, 5.63761627e-04,
          4.30149463e-04, 1.62729167e-03, 1.65560772e-03, 1.32530101e-03,
          3.56808188e-04, -7.49173851e-05, 9.58694218e-05,
          6.34391326e-05, 0., 0., 0., 0., 0., -2.90371208e-05,
          2.41389585e-04, 4.43449040e-04, -8.97086225e-04,
          -1.23316830e-03, -1.10325776e-03, -4.78631206e-04,
          -1.21687248e-03, -7.15345435e-04, 3.62910883e-04,
          1.59515371e-03, 1.30470120e-03, 7.71898194e-05, 1.88516278e-04,
          1.24763639e-04, 0., 0., 0., 0., 0., -1.54259702e-04,
          -4.48846084e-04, -1.29647247e-04, -2.21823249e-03,
          -2.66223657e-03, -9.74003633e-04, -8.27067939e-04,
          -5.75123471e-04, -6.35249075e-04, -1.86101394e-03,
          3.10671894e-04, -1.10452929e-05, 6.65019616e-04,
          2.07052217e-04, 8.44987790e-06, 0., 0., -3.67547182e-05,
          -5.14566054e-05, -1.58877028e-05, -1.66636310e-04,
          -4.12386406e-04, -6.43073756e-04, -1.35560939e-03,
          -2.73289392e-03, -1.67695491e-03, -7.95183005e-04,
          1.93546308e-04, -5.74932492e-05, -1.19336648e-03,
          -7.92326580e-04, -2.64906615e-04, -9.57322263e-05,
          -3.54096439e-04, -5.11675717e-05, 0., 0., -1.71522006e-05,
          -2.45031442e-05, -2.18005996e-04, -8.13863240e-04,
          -2.95366772e-04, -1.09991187e-03, -1.43728044e-03,
          -1.49463909e-03, -1.51324857e-04, 2.36066611e-04,
          -2.40450550e-04, -5.77760686e-04, -1.96944503e-03,
          -1.49650779e-03, -1.07013225e-03, -1.08989002e-03,
          -5.76572202e-04, -7.34968417e-05, 0., 0., 0., -8.33136801e-05,
          -8.34912120e-04, -6.03483466e-04, 2.36340857e-05,
          -2.29259153e-04, -7.66780868e-04, -2.57968612e-04,
          1.41111214e-03, 8.58643209e-04, 8.81333894e-04, 5.90674754e-04,
          -1.83660028e-04, -9.79774049e-04, -1.70713535e-03,
          -6.77955453e-04, -4.57210554e-04, -3.22984270e-05, 0., 0., 0.,
          -6.02799002e-04, -6.71244343e-04, 9.06132482e-06,
          5.61286230e-04, -3.02761364e-05, -7.65026198e-04,
          -1.00945309e-03, 4.20104188e-04, 7.19377364e-04,
          1.78663782e-03, 4.19809337e-04, 6.39229605e-04,
          -1.04353356e-03, -8.35952233e-04, -6.54057483e-04,
          -2.50785728e-04, 0., 0., 0., 0., -1.32321729e-04,
          -3.50340815e-05, 9.13740805e-05, 6.55804688e-05,
          -5.57975611e-04, -1.34144165e-03, -1.50945154e-03,
          -4.26658225e-04, 1.76368991e-03, 1.20432081e-03,
          -4.57210117e-04, 4.44150646e-04, -6.24438399e-04,
          -5.69480064e-04, -9.10053786e-04, -6.77931894e-05, 0., 0., 0.,
          0., 0., -1.69344494e-05, -3.04820103e-04, -5.37668762e-04,
          -5.53019694e-04, -5.84768422e-04, -9.07412788e-04,
          6.21802290e-04, 5.25339856e-04, 1.43417693e-03,
          -6.15525933e-04, 5.89047268e-05, -6.08295552e-04,
          -7.83355674e-04, -7.25358957e-04, -1.91587009e-04,
          -1.86914149e-05, 0., 0., 0., 0., -4.86865429e-05,
          -4.69930965e-04, -4.88982245e-04, -2.37082291e-04,
          1.70645690e-05, -3.52240837e-04, -6.53241063e-04,
          -1.56221539e-03, -3.42731510e-04, -1.16410106e-03,
          6.00547181e-04, -3.59403377e-04, -3.42204265e-04,
          -3.29592731e-04, -3.76024575e-04, -2.13257415e-04, 0.,
          1.82003914e-05, 0., 0., -4.65697376e-05, -2.60367175e-04,
          -8.04386364e-05, -8.49037770e-06, 2.44104405e-04,
          1.46619514e-05, -6.48801448e-04, 1.87875121e-05,
          -2.95100297e-04, 1.79785438e-05, 1.76546862e-03,
          5.13837949e-05, -1.32645000e-04, -5.40868205e-04,
          -5.09779260e-04, -3.63952888e-04, 0., 8.96019264e-05, 0., 0.,
          0., 0., 1.00801444e-05, 1.85982171e-05, -3.86692787e-04,
          -4.27947874e-04, 3.98755074e-04, -2.85284797e-04,
          1.24539714e-03, 2.64611008e-04, 5.62990142e-04, 7.86622870e-04,
          3.83753591e-04, -4.80056442e-05, -1.43370780e-04,
          -7.07779836e-05, 0., 9.80021105e-06, 0., 0., 0., 0.,
          5.29824756e-04, 9.03363572e-04, -4.40967648e-04,
          1.69671676e-03, 7.01169411e-05, 1.23657403e-04, 1.67442171e-03,
          1.04409677e-03, 9.44735366e-04, 9.08946444e-04, 7.57558213e-04,
          3.91973939e-04, 0., 0., 0., 0., 0., 0., 0., 4.22927587e-06,
          5.94056328e-04, 6.35719160e-04, 6.31879317e-04, 2.23597651e-03,
          -4.99109912e-04, 1.65568595e-03, 7.69171282e-04,
          -1.07562030e-03, 6.85169536e-04, 7.21131393e-04,
          7.63002667e-04, 3.88981774e-04, 0., 0., 0., 0., 0., 0., 0.,
          1.90317405e-05, 2.87644682e-04, -7.16662733e-04,
          -6.02221524e-04, 3.21930886e-04, -1.16816733e-03,
          4.95020475e-04, -1.55912002e-03, -1.79501972e-03,
          5.50543889e-04, 1.47835890e-04, 1.10710193e-04, 5.38590139e-05,
          0., 0., 0., 0., 0., 0., 0., 0., -3.90070745e-05,
          -1.60125419e-04, -3.97636584e-04, -1.06703094e-03,
          -2.20724894e-03, -1.04264538e-04, -3.35280027e-04,
          -2.49064869e-05, 0., 0., 0., 0., 0., 0., 0., 0., 0., 0., 0.,
          0., 0., -1.82179938e-05, -1.50949098e-04, -7.81846829e-05,
          -4.18132375e-04, -1.39377458e-04, 0., 0., 0., 0., 0., 0., 0.,
          0., 0., 0. ]
      - [ 0., 0., 0., 0., 0., 0., 0., 0., 0., 0., 0., 0., 0., 0., 0., 0.,
          0., 0., 0., 0., 0., 0., 0., 0., 0., 0., 0., 0., 0., 0., 0., 0.,
          0., 0., 0., 0., 0., 0., 0., 0., 0., 0., 3.60158970e-06,
          1.08047689e-05, 0., 1.37044495e-04, 3.93227674e-05,
          -1.06732768e-03, -1.47807098e-03, -5.45445946e-04,
          -3.72625189e-04, -9.46237487e-05, -3.33209347e-04,
          4.32957022e-04, 7.28094543e-04, 3.98223347e-04, 8.22302391e-05,
          0., 0., 0., 0., 0., 1.08047689e-05, 3.96174873e-05,
          2.25144526e-04, 1.31420768e-03, 3.30344948e-04,
          -1.26726087e-03, -6.63405750e-04, -1.60990714e-03,
          -2.72716116e-03, 2.67989060e-04, -2.62880838e-03,
          -1.28883112e-03, -1.77525147e-03, 2.05663106e-04,
          8.41633941e-04, 7.00329256e-05, -2.19437090e-04,
          -4.25773433e-05, 0., 0., 0., 0., 1.08656706e-03,
          9.66087973e-04, 1.04171399e-03, 1.71088660e-03,
          -1.96042703e-03, -2.53395806e-03, -1.92329090e-03,
          -2.42806086e-03, -1.91157439e-03, -2.53781932e-03,
          -1.55756797e-03, -9.06023779e-04, 4.00029763e-04,
          -3.78564175e-04, -3.83196108e-04, -1.63759014e-05, 0., 0., 0.,
          0., 8.03496223e-05, 3.50597664e-04, 3.91585228e-04,
          -3.26950132e-04, -9.78406635e-04, -1.98498601e-04,
          1.58987951e-03, -1.73978711e-04, 6.12373056e-04,
          3.42199975e-03, 5.95500518e-04, 1.96089107e-03, 7.70955521e-05,
          -1.02010695e-03, -2.69545726e-05, 0., 0., 0., 0.,
          -5.35033996e-06, -1.98019712e-04, -8.10586556e-04,
          -1.49189949e-03, 8.37580941e-04, -3.04554880e-04,
          1.18954724e-03, 7.21119111e-04, 2.01746612e-03,
          -5.90290350e-04, -6.45733380e-04, -1.75886310e-03,
          -2.77985772e-03, -2.25451426e-03, -1.78051204e-03,
          -4.46688529e-04, 0., 0., 0., 0., -8.82806125e-05,
          -6.40296144e-04, -1.13266567e-03, 1.21460890e-03,
          -2.63299863e-03, -1.80030789e-03, -1.38740346e-04,
          2.80251144e-03, 2.20860774e-03, -1.65498548e-03,
          -2.00582406e-04, -1.77076389e-03, -2.47734692e-03,
          -1.69888302e-03, -1.24469120e-03, 3.04777728e-04, 0., 0., 0.,
          -1.67198123e-05, -2.17264052e-04, -1.91849947e-04,
          1.64069934e-03, 1.50876003e-03, -2.03174679e-03,
          -7.79866008e-04, -1.04820658e-03, 3.80701199e-03,
          2.28848192e-04, 2.32506543e-04, -3.21545049e-05,
          -2.56949500e-03, -1.44913141e-03, -1.55876693e-03,
          -7.85774377e-04, 6.72451104e-04, 0., 0., 0., -6.01913280e-06,
          8.83697212e-05, 2.05195020e-03, 1.23888045e-03,
          -1.76779972e-03, -3.81312030e-03, -1.90300844e-03,
          2.42083843e-04, -9.79663455e-04, -3.92905582e-04,
          7.46267440e-04, -1.30340026e-03, -2.71517597e-03,
          -1.25882775e-03, -5.79404063e-04, -7.69370890e-05,
          1.55148846e-05, 0., 0., 0., 0., 4.28892032e-04, 1.01905223e-03,
          -8.75176629e-05, -8.56884813e-04, -1.29823526e-03,
          6.52808521e-04, 1.30386569e-03, 4.88195248e-04,
          -1.36064505e-03, 1.96696678e-03, 3.51717463e-04,
          4.72280692e-04, 4.45611309e-04, 0., 3.10297692e-05,
          2.17208377e-04, 3.87872096e-05, 0., 0., 0., 0., 0.,
          -9.68047461e-05, -1.01994758e-03, -7.23989564e-04,
          7.07665604e-05, -1.34175294e-04, 1.53244531e-03,
          -5.53675382e-05, 1.74591446e-03, -2.46446463e-03,
          -1.37465529e-03, -2.27672906e-04, 0., 0., 3.87872096e-05, 0.,
          0., 0., 0., 0., -1.03921877e-04, -9.14544973e-04,
          -1.63219403e-03, -2.84022046e-03, 3.74080788e-04,
          1.51975825e-03, 2.18203815e-04, -2.32241163e-03,
          -1.58065232e-03, -2.12290254e-03, -2.02338025e-03,
          -1.24751334e-03, -1.83582990e-04, 0., 0., 1.38615331e-04, 0.,
          0., 0., -9.62160047e-05, 1.71385720e-04, -4.70114581e-04,
          -2.21514073e-03, 5.10526224e-05, -4.73033258e-04,
          1.71295309e-03, 6.66923414e-04, -7.75510038e-04,
          -1.19128823e-03, -4.69122635e-04, 1.25957420e-04,
          -2.21632142e-03, -4.08726803e-04, 6.77829303e-06,
          2.12783036e-07, 6.82413927e-04, 0., 0., 0., -3.58178135e-04,
          1.76176603e-04, -1.04353228e-03, -1.54304109e-03,
          8.17537308e-04, -1.75509835e-03, 1.55137049e-03,
          -8.87731847e-04, 6.32491661e-04, 1.05294713e-03,
          2.11941777e-03, -1.28512969e-04, -1.97095983e-03,
          -3.10796051e-04, 1.29031760e-05, 2.55339637e-06,
          7.46390215e-05, 0., 0., 0., -4.00461489e-04, 1.28287799e-03,
          2.32748245e-03, 4.20945726e-04, -4.59707895e-04,
          3.81021207e-04, -1.86556531e-03, 4.19609423e-04,
          6.60395075e-04, 9.58223129e-04, -6.47834328e-04,
          -1.51951285e-03, -3.56087439e-05, -9.85557272e-05,
          2.62934464e-06, 2.12783036e-07, 0., 0., 0., 0.,
          -3.48516012e-04, 3.32506490e-04, 1.18599611e-03,
          6.83916034e-04, 4.89809434e-04, -1.73154671e-03,
          -8.14499363e-05, -1.14804623e-03, -4.21666831e-04,
          1.66776916e-03, -2.55376857e-04, 1.19268289e-03,
          1.12475292e-03, -2.54141160e-05, 0., 0., 0., 0., 0., 0.,
          -1.22786645e-04, -2.40884729e-05, -5.62482688e-04,
          -1.15358015e-03, -1.07480481e-03, -2.12468603e-03,
          -1.41033914e-03, -2.28113867e-03, -3.72662279e-03,
          2.87534029e-04, -2.02419673e-04, 2.85277900e-04,
          1.55467496e-04, 0., 0., 0., 0., 0., 0., 0., 0., 0., 0., 0., 0.,
          -1.15578448e-04, -2.74003018e-04, -2.37980203e-04,
          -2.86754745e-04, -1.17308758e-04, 0., 0., -5.45519433e-05,
          -7.43890123e-05, -4.95926770e-06, 0., 0., 0., 0., 0., 0., 0.,
          0., 0., 0., 0., 0., 0., 0., 0., 0., 0., -3.96741416e-05,
          -4.95926761e-05, -4.95926770e-06, 0., 0. ]
      - [ 0., 0., 0., 0., 0., 0., 0., 0., 0., 0., 0., 0., 0., 0., 0., 0.,
          0., 0., 0., 0., 0., 0., 0., 0., 0., 0., 0., 0., 0., 0., 0., 0.,
          0., 0., 0., 0., 0., 0., 0., 0., 0., 0., 0., 0., 0.,
          5.44269315e-05, 9.33033079e-05, -1.04813660e-06,
          -4.43194085e-06, -3.31988531e-06, 8.51249861e-05,
          6.48882648e-04, 2.86506925e-04, 1.23793026e-04, 6.18965132e-05,
          0., 0., 0., 0., 0., 0., 0., 0., 0., 8.94156692e-05,
          7.07550091e-04, 8.50611366e-04, 2.22338553e-04,
          -1.47171901e-04, -3.80170968e-04, 3.84999323e-04,
          1.93659752e-03, 1.10960135e-03, 4.73954482e-04, 2.50649638e-04,
          2.09329039e-04, 2.07028716e-05, 0., 0., 0., 0., 0., 0., 0.,
          4.31527820e-04, 9.72589594e-04, 7.50777486e-04, 4.72623360e-04,
          3.70036927e-04, -3.12948803e-04, -6.07367838e-04,
          3.78424738e-04, -3.06169153e-04, 1.49236701e-04,
          2.75251106e-04, 7.58980343e-04, -3.74654337e-05,
          -1.47889875e-06, 0., 0., 0., 0., 0., 0., 1.51871272e-05,
          2.99316045e-04, 1.09264176e-04, -6.98199146e-04,
          -7.73693755e-05, -2.24990002e-03, -3.42510903e-04,
          -1.49495027e-03, -2.64142477e-03, 3.37582373e-04,
          -1.59105635e-04, 1.19323225e-03, 6.43362800e-05, 0., 0., 0.,
          0., 0., 0., 0., -8.86489870e-05, -4.39638359e-04,
          -5.93322678e-04, -1.54303527e-03, -3.73469782e-04,
          -2.41491129e-03, -4.23016580e-04, -3.56674049e-04,
          -5.85103175e-04, -8.06635144e-05, -9.80783603e-04,
          -3.80412566e-05, 1.62417109e-05, 0., 0., 0., 0., 0., 0.,
          -5.05721118e-06, -1.98420123e-04, -8.04248266e-04,
          -5.68977033e-04, -6.71716232e-04, -3.50994000e-04,
          -1.30305463e-03, 2.33682455e-04, -3.10712261e-04,
          3.96280026e-04, 9.26132816e-06, -1.05441432e-03,
          -4.15772025e-04, -2.60932302e-05, 0., 0., 0., 0., 0., 0.,
          -9.03073378e-05, -6.24588429e-05, 5.21208043e-04,
          2.49842851e-04, -2.41953050e-04, -7.33899884e-04,
          -7.92831124e-04, 2.93527701e-04, -3.62545543e-04,
          -1.07266882e-03, -2.72953621e-04, -8.48687545e-04,
          -3.19351209e-04, 0., 0., 0., 0., 0., 0., -5.20170288e-05,
          -1.30155269e-04, 5.35340281e-04, 3.98949691e-04,
          -1.36685290e-03, -1.16887258e-03, -4.38404793e-04,
          4.62358730e-04, 9.91804525e-04, -5.43888425e-04,
          -1.54571526e-03, -1.14245573e-03, -9.13053635e-04,
          -2.55036401e-04, -1.01144224e-05, 0., 0., 0., 0., 0.,
          -7.15234128e-05, -1.00882120e-04, -1.27182779e-04,
          -5.93967678e-04, -1.33884349e-03, -9.68903478e-04,
          -4.65319317e-04, 7.71490682e-04, 1.82543485e-03,
          -9.09816066e-04, -1.25787989e-03, -9.74129536e-04,
          -1.02623587e-03, -2.32318853e-04, -2.74534304e-05, 0., 0., 0.,
          0., 0., -1.87839269e-05, -2.72247125e-04, -1.92264939e-04,
          4.12201247e-04, 5.33868617e-04, -3.62599967e-04,
          1.22717489e-03, 9.32165131e-04, 1.33812462e-03,
          -9.75556381e-04, -4.97605128e-04, -5.58622531e-04,
          -9.00911517e-04, -1.56325026e-04, -1.44491742e-06, 0., 0., 0.,
          0., 0., 0., 7.87990066e-05, 6.14358403e-04, 6.46936824e-04,
          -3.69255751e-04, -6.34204538e-04, 5.25457086e-04,
          1.11495086e-03, 4.29822219e-04, -3.01640277e-04,
          -1.46805192e-04, -4.63268370e-04, -7.45560625e-04,
          -6.09847484e-05, 0., 0., 0., 0., 0., 0., 0., -2.92991299e-05,
          -1.45064725e-04, -5.11694991e-04, -2.91558332e-04,
          8.91248346e-04, 5.81225555e-04, 1.98837835e-03, 1.33284752e-03,
          1.24129921e-03, 4.72550804e-04, 1.39513082e-04, 3.33077944e-04,
          2.82144669e-04, 0., 0., 0., 0., 0., 0., 0., -4.58507566e-06,
          -1.47194994e-04, 2.21715920e-04, 2.46280979e-04,
          5.16569533e-04, 2.47778924e-04, 1.02839340e-03, 1.10715162e-03,
          1.47713022e-03, 9.16470482e-04, 9.89323715e-04, 9.17117984e-04,
          4.34721616e-04, -1.41463506e-05, 0., 0., 0., 0., 0., 0.,
          -1.49456217e-04, 7.76394503e-04, 1.42768293e-03,
          5.94905228e-04, 6.10764895e-04, -5.47099218e-04,
          -8.75873375e-04, 1.17712119e-03, 1.57543726e-03,
          7.12615554e-04, 4.80333489e-04, 4.22561046e-04, 3.60236532e-04,
          -7.85908355e-07, 0., 0., 0., 0., 0., 0., -9.73291462e-04,
          -1.36025390e-03, -4.77694324e-04, 7.36974762e-04,
          1.70783594e-03, 1.00765715e-03, 5.12444589e-04, 3.46818881e-04,
          7.13119400e-04, 5.17607725e-04, 4.11232642e-04, 5.66186558e-04,
          3.55656870e-04, 0., 0., 0., 0., 0., 0., 0., -1.03318342e-03,
          -1.90612115e-03, -1.60104374e-03, -1.33545429e-04,
          1.29295615e-04, 7.20156124e-04, 8.90233350e-05,
          -2.06162818e-04, -3.31505580e-04, 2.88380455e-04,
          -5.39805951e-05, -7.26504004e-05, -2.32955681e-05, 0.,
          -3.94373001e-06, 0., 0., 0., 0., 0., 0., 0., 1.00315126e-04,
          8.25325551e-05, -4.46915481e-04, -3.36081896e-04,
          -9.63362458e-04, -7.64738477e-04, -1.04105915e-03,
          -3.34539771e-04, -2.01505944e-04, -3.89185952e-05,
          -5.15099055e-06, 0., -1.33100884e-05, 0., 0., 0., 0., 0., 0.,
          0., 0., 0., 0., 0., 0., -5.31016703e-05, -2.78783788e-04,
          -7.86472010e-05, -3.26369845e-05, 0., 0., 0., 0., 0., 0. ]
      - [ 0., 0., 0., 0., 0., 0., 0., 0., 0., 0., 0., 0., 0., 0., 0., 0.,
          0., 0., 0., 0., 0., 0., 0., 0., 0., 0., 0., 0., 7.16143347e-07,
          2.68553754e-06, 2.92425216e-06, 2.38714449e-07, 0., 0., 0., 0.,
          0., 0., 0., 0., 0., 0., 0., 0., 6.07848924e-05, 3.42605752e-04,
          4.68728540e-04, 7.05574523e-04, 6.01372332e-04,
          -6.08747978e-05, -8.62554938e-04, -3.49314098e-04,
          -1.69787032e-03, -1.18388550e-03, -9.47075780e-04,
          -2.54800369e-04, 1.93294691e-04, 0., 0., 0., 0., 0.,
          2.16368135e-05, 2.99309235e-04, 2.07775258e-04, 6.02310647e-05,
          2.83241679e-04, -7.61213829e-04, 1.25850565e-04,
          1.53361994e-03, 1.17789477e-03, -5.26663905e-04,
          -9.66185646e-04, 7.45837926e-04, 4.74832719e-04,
          -9.53304116e-04, -7.14232883e-05, -1.20740460e-05, 0., 0., 0.,
          0., -1.81305411e-04, -7.97770990e-05, -2.32286402e-03,
          -6.10242656e-04, 1.25716280e-04, -1.00747950e-03,
          9.92128626e-04, -1.13620888e-03, 3.10647185e-04,
          1.09488936e-03, -9.16535500e-04, -1.50526909e-03,
          7.42840522e-04, -7.86598306e-04, -2.71654426e-04,
          -6.97469150e-05, 0., 0., 0., 0., -1.05490407e-03,
          -3.39073187e-04, -1.66405912e-03, -1.24185847e-03,
          1.55764865e-04, 2.57301697e-04, 1.31136345e-04,
          -2.36547552e-04, -2.52886559e-03, 1.11377961e-03,
          -1.86894124e-03, -1.14959339e-03, -1.01101301e-04,
          3.18693434e-04, -8.38164589e-04, -1.43433805e-04, 0., 0., 0.,
          0., -5.42769209e-04, 2.32713399e-04, -1.00309298e-04,
          -1.30857504e-03, -4.50295745e-04, 2.11803257e-04,
          -5.47377495e-05, 1.65960446e-04, -9.26106935e-04,
          -8.81726388e-04, 1.86082569e-03, 1.42193842e-03,
          1.21718342e-03, 4.04252816e-04, -5.94006153e-04,
          -7.22039185e-05, 0., 0., 0., 0., -3.07221984e-04,
          3.06003407e-04, 3.99222918e-04, 1.24033404e-05,
          -3.84244486e-04, -3.86422005e-04, 4.79880197e-04,
          -1.99967739e-03, -6.62049220e-04, -3.11274803e-03,
          -9.82674537e-04, -1.63583062e-03, -1.19270597e-04,
          -2.98293511e-04, 2.03013245e-04, 9.03753389e-05,
          1.14947907e-05, 0., 0., 0., -8.78082647e-05, -1.17889103e-05,
          3.85054009e-05, -5.63832931e-04, -9.90688219e-04,
